{"learner":{"attributes":{"scikit_learn":"{\"_estimator_type\": \"classifier\"}"},"feature_names":["Type_encoded","Air_temp","Process_temp","RPM","Torque","Tool_wear"],"feature_types":["int","float","float","int","float","int"],"gradient_booster":{"model":{"cats":{"enc":[],"feature_segments":[],"sorted_idx":[]},"gbtree_model_param":{"num_parallel_tree":"1","num_trees":"200"},"iteration_indptr":[0,1,2,3,4,5,6,7,8,9,10,11,12,13,14,15,16,17,18,19,20,21,22,23,24,25,26,27,28,29,30,31,32,33,34,35,36,37,38,39,40,41,42,43,44,45,46,47,48,49,50,51,52,53,54,55,56,57,58,59,60,61,62,63,64,65,66,67,68,69,70,71,72,73,74,75,76,77,78,79,80,81,82,83,84,85,86,87,88,89,90,91,92,93,94,95,96,97,98,99,100,101,102,103,104,105,106,107,108,109,110,111,112,113,114,115,116,117,118,119,120,121,122,123,124,125,126,127,128,129,130,131,132,133,134,135,136,137,138,139,140,141,142,143,144,145,146,147,148,149,150,151,152,153,154,155,156,157,158,159,160,161,162,163,164,165,166,167,168,169,170,171,172,173,174,175,176,177,178,179,180,181,182,183,184,185,186,187,188,189,190,191,192,193,194,195,196,197,198,199,200],"tree_info":[0,0,0,0,0,0,0,0,0,0,0,0,0,0,0,0,0,0,0,0,0,0,0,0,0,0,0,0,0,0,0,0,0,0,0,0,0,0,0,0,0,0,0,0,0,0,0,0,0,0,0,0,0,0,0,0,0,0,0,0,0,0,0,0,0,0,0,0,0,0,0,0,0,0,0,0,0,0,0,0,0,0,0,0,0,0,0,0,0,0,0,0,0,0,0,0,0,0,0,0,0,0,0,0,0,0,0,0,0,0,0,0,0,0,0,0,0,0,0,0,0,0,0,0,0,0,0,0,0,0,0,0,0,0,0,0,0,0,0,0,0,0,0,0,0,0,0,0,0,0,0,0,0,0,0,0,0,0,0,0,0,0,0,0,0,0,0,0,0,0,0,0,0,0,0,0,0,0,0,0,0,0,0,0,0,0,0,0,0,0,0,0,0,0,0,0,0,0,0,0],"trees":[{"base_weights":[6.666151E-2,-2.2664651E-1,1.1377479E0,2.4979777E0,-6.386643E-1,7.4130625E-2,8.949993E0,7.1917117E-1,-7.5865495E-1,5.1336163E-1,-8.848566E-2,9.8279566E-1,2.5461924E-1,-7.964407E-1,2.5461924E-1,-2.961345E-2,1.304378E-1,-8.5575454E-2,-5.020541E-2],"categories":[],"categories_nodes":[],"categories_segments":[],"categories_sizes":[],"default_left":[0,0,0,0,0,0,0,0,0,0,0,0,0,0,0,0,0,0,0],"id":0,"left_children":[1,3,-1,5,7,9,11,-1,13,15,-1,-1,-1,17,-1,-1,-1,-1,-1],"loss_changes":[6.9828E2,2.3215718E2,0E0,4.244275E2,1.7382837E2,9.201832E0,1.6663208E1,0E0,2.4181076E1,9.912032E0,0E0,0E0,0E0,2.6462784E0,0E0,0E0,0E0,0E0,0E0],"parents":[2147483647,0,0,1,1,3,3,4,4,5,5,6,6,8,8,9,9,13,13],"right_children":[2,4,-1,6,8,10,12,-1,14,16,-1,-1,-1,18,-1,-1,-1,-1,-1],"split_conditions":[6.09E1,1.382E3,1.1377479E0,3.016E2,1.58E1,2E0,3.035E2,7.1917117E-1,5.68E1,5.24E1,-8.848566E-2,9.8279566E-1,2.5461924E-1,4.59E1,2.5461924E-1,-2.961345E-2,1.304378E-1,-8.5575454E-2,-5.020541E-2],"split_indices":[4,3,0,1,4,0,1,0,4,4,0,0,0,4,0,0,0,0,0],"split_type":[0,0,0,0,0,0,0,0,0,0,0,0,0,0,0,0,0,0,0],"sum_hessian":[2.0870317E2,2.0438313E2,4.320028E0,2.6181988E1,1.7820114E2,1.97674E1,6.414587E0,1.8000116E0,1.7640114E2,1.3876453E1,5.890947E0,5.1709423E0,1.2436444E0,1.7515749E2,1.2436444E0,7.167319E0,6.709134E0,1.441973E2,3.09602E1],"tree_param":{"num_deleted":"0","num_feature":"6","num_nodes":"19","size_leaf_vector":"1"}},{"base_weights":[-1.1163653E-3,-4.554678E-1,2.7988007E0,-6.823337E-1,3.01464E0,1.5885376E0,9.3018574E-1,6.946511E-1,-7.881086E-1,1.7796302E0,5.1639295E-1,6.534374E-1,5.5130965E-1,-9.8458165E-1,-2.8478003E-1,2.2631524E0,-2.5345048E-2,2.7399024E-1,1.7561888E0,1.5523836E-2,-9.997365E-2,-9.8692365E-2,2.6184862E-2,1.1180419E-1,3.1107923E-1,-4.7525994E-2,8.985542E-2,2.250284E-1,1.7439136E-2],"categories":[],"categories_nodes":[],"categories_segments":[],"categories_sizes":[],"default_left":[0,0,0,0,0,0,0,0,0,0,0,0,0,0,0,0,0,0,0,0,0,0,0,0,0,0,0,0,0],"id":1,"left_children":[1,3,5,7,9,11,-1,-1,13,15,-1,17,-1,19,21,23,-1,25,27,-1,-1,-1,-1,-1,-1,-1,-1,-1,-1],"loss_changes":[2.7532047E2,1.486457E2,2.2303801E2,1.4716736E2,2.1630325E1,9.431338E1,0E0,0E0,1.693541E1,9.322386E0,0E0,9.009603E0,0E0,2.3110657E0,1.9557827E1,3.5984802E0,0E0,8.878247E0,4.001253E0,0E0,0E0,0E0,0E0,0E0,0E0,0E0,0E0,0E0,0E0],"parents":[2147483647,0,0,1,1,2,2,3,3,4,4,5,5,8,8,9,9,11,11,13,13,14,14,15,15,17,17,18,18],"right_children":[2,4,6,8,10,12,-1,-1,14,16,-1,18,-1,20,22,24,-1,26,28,-1,-1,-1,-1,-1,-1,-1,-1,-1,-1],"split_conditions":[5.36E1,2.05E2,1.89E2,1.38E1,4.51E1,6.4E1,9.3018574E-1,6.946511E-1,4.48E1,4.14E1,5.1639295E-1,6.15E1,5.5130965E-1,1.58E1,3.099E2,2.14E2,-2.5345048E-2,3.101E2,1.28E2,1.5523836E-2,-9.997365E-2,-9.8692365E-2,2.6184862E-2,1.1180419E-1,3.1107923E-1,-4.7525994E-2,8.985542E-2,2.250284E-1,1.7439136E-2],"split_indices":[4,5,5,4,4,4,0,0,4,4,0,4,0,4,2,5,0,2,5,0,0,0,0,0,0,0,0,0,0],"split_type":[0,0,0,0,0,0,0,0,0,0,0,0,0,0,0,0,0,0,0,0,0,0,0,0,0,0,0,0,0],"sum_hessian":[2.1441997E2,1.852037E2,2.9216265E1,1.7459268E2,1.0611012E1,2.568111E1,3.5351543E0,1.5032126E0,1.7308948E2,7.899731E0,2.7112806E0,2.1681568E1,3.9995427E0,1.2380596E2,4.928351E1,6.2905116E0,1.6092199E0,1.7059874E1,4.621694E0,1.5032126E0,1.2230275E2,2.122043E1,2.806308E1,3.6621597E0,2.6283517E0,7.8644447E0,9.195429E0,3.1996343E0,1.4220597E0],"tree_param":{"num_deleted":"0","num_feature":"6","num_nodes":"29","size_leaf_vector":"1"}},{"base_weights":[-9.6344694E-2,1.4801903E0,-6.158646E-1,8.827921E-1,4.103042E0,3.990871E-1,-7.0949084E-1,5.673582E-1,4.0478548E-1,1.238338E-1,4.5344225E-1,-8.878845E-1,1.4090914E0,-6.175676E-1,1.2610587E0,-9.609979E-1,3.032134E-1,6.371788E-1,3.7936172E-1,-9.473731E-2,2.6798462E-2,1.678949E-1,-8.656945E-2,2.0919207E-2,-9.739047E-2,1.5228966E-1,3.472746E-2],"categories":[],"categories_nodes":[],"categories_segments":[],"categories_sizes":[],"default_left":[0,0,0,0,0,0,0,0,0,0,0,0,0,0,0,0,0,0,0,0,0,0,0,0,0,0,0],"id":2,"left_children":[1,3,5,7,9,-1,11,13,-1,-1,-1,15,17,19,21,23,-1,25,-1,-1,-1,-1,-1,-1,-1,-1,-1],"loss_changes":[1.7450461E2,7.915033E1,7.1893265E1,4.1931408E1,6.156601E0,0E0,6.0882805E1,3.4848694E1,0E0,0E0,0E0,4.47983E1,2.084942E1,4.919973E0,2.498037E1,2.382019E0,0E0,2.2317305E0,0E0,0E0,0E0,0E0,0E0,0E0,0E0,0E0,0E0],"parents":[2147483647,0,0,1,1,2,2,3,3,4,4,6,6,7,7,11,11,12,12,13,13,14,14,15,15,17,17],"right_children":[2,4,6,8,10,-1,12,14,-1,-1,-1,16,18,20,22,24,-1,26,-1,-1,-1,-1,-1,-1,-1,-1,-1],"split_conditions":[1.389E3,1.94E2,1.38E1,6.73E1,5.02E1,3.990871E-1,2.05E2,3.099E2,4.0478548E-1,1.238338E-1,4.5344225E-1,5.82E1,4.79E1,6.03E1,3.121E2,1.58E1,3.032134E-1,1.456E3,3.7936172E-1,-9.473731E-2,2.6798462E-2,1.678949E-1,-8.656945E-2,2.0919207E-2,-9.739047E-2,1.5228966E-1,3.472746E-2],"split_indices":[3,5,4,4,4,0,5,2,0,0,0,4,4,4,2,4,0,3,0,0,0,0,0,0,0,0,0],"split_type":[0,0,0,0,0,0,0,0,0,0,0,0,0,0,0,0,0,0,0,0,0,0,0,0,0,0,0],"sum_hessian":[2.1094658E2,5.1826065E1,1.5912051E2,4.330028E1,8.525784E0,2.3403747E0,1.5678014E2,4.0448402E1,2.8518794E0,1.6224025E0,6.903381E0,1.4513966E2,1.1640476E1,1.497648E1,2.5471924E1,1.4322322E2,1.9164467E0,9.751092E0,1.8893844E0,1.0861521E1,4.1149583E0,2.1464813E1,4.00711E0,1.3965675E0,1.4182664E2,1.3557843E0,8.395308E0],"tree_param":{"num_deleted":"0","num_feature":"6","num_nodes":"27","size_leaf_vector":"1"}},{"base_weights":[-3.3365034E-3,-4.0803066E-1,1.4953587E0,-6.206721E-1,1.5119386E0,1.0592262E0,3.9635447E-1,3.203878E-1,-7.303103E-1,9.891894E-1,2.2828422E0,4.7125635E-1,2.5675528E0,-9.5298016E-1,-1.1816503E-1,1.3833196E0,-4.5060164E-1,1.0168164E0,3.532944E-1,-4.7069308E-1,1.6503029E0,3.2710276E0,-4.06286E-2,3.0530488E-2,-9.704866E-2,-9.096343E-2,1.17886E-1,5.288394E-2,1.7910002E-1,-6.1060246E-2,-4.384991E-3,1.6676585E-1,-1.9924283E-2,-7.686988E-2,9.348945E-2,1.0372144E-1,2.6746827E-1,1.284652E-1,3.9578682E-1],"categories":[],"categories_nodes":[],"categories_segments":[],"categories_sizes":[],"default_left":[0,0,0,0,0,0,0,0,0,0,0,0,0,0,0,0,0,0,0,0,0,0,0,0,0,0,0,0,0,0,0,0,0,0,0,0,0,0,0],"id":3,"left_children":[1,3,5,7,9,11,-1,-1,13,15,17,19,21,23,25,27,29,31,-1,33,35,37,-1,-1,-1,-1,-1,-1,-1,-1,-1,-1,-1,-1,-1,-1,-1,-1,-1],"loss_changes":[1.2720585E2,6.835669E1,4.380458E1,6.49762E1,4.4944954E0,3.360926E1,0E0,0E0,1.9792023E1,7.291046E0,5.913761E0,3.3511066E1,2.3896278E1,2.6519012E0,4.22287E1,2.351944E0,1.8665725E-1,3.80546E0,0E0,7.90763E0,5.585991E0,6.9681854E0,0E0,0E0,0E0,0E0,0E0,0E0,0E0,0E0,0E0,0E0,0E0,0E0,0E0,0E0,0E0,0E0,0E0],"parents":[2147483647,0,0,1,1,2,2,3,3,4,4,5,5,8,8,9,9,10,10,11,11,12,12,13,13,14,14,15,15,16,16,17,17,19,19,20,20,21,21],"right_children":[2,4,6,8,10,12,-1,-1,14,16,18,20,22,24,26,28,30,32,-1,34,36,38,-1,-1,-1,-1,-1,-1,-1,-1,-1,-1,-1,-1,-1,-1,-1,-1,-1],"split_conditions":[5.24E1,2.05E2,2.03E2,1.38E1,2.18E2,3.02E2,3.9635447E-1,3.203878E-1,3.016E2,4.81E1,4.53E1,6.09E1,3.125E2,1.58E1,4.44E1,3.099E2,5.03E1,3.8E1,3.532944E-1,1.89E2,6.73E1,3.024E2,-4.06286E-2,3.0530488E-2,-9.704866E-2,-9.096343E-2,1.17886E-1,5.288394E-2,1.7910002E-1,-6.1060246E-2,-4.384991E-3,1.6676585E-1,-1.9924283E-2,-7.686988E-2,9.348945E-2,1.0372144E-1,2.6746827E-1,1.284652E-1,3.9578682E-1],"split_indices":[4,5,5,4,5,1,0,0,1,4,4,4,2,4,4,2,4,4,0,5,4,1,0,0,0,0,0,0,0,0,0,0,0,0,0,0,0,0,0],"split_type":[0,0,0,0,0,0,0,0,0,0,0,0,0,0,0,0,0,0,0,0,0,0,0,0,0,0,0,0,0,0,0,0,0,0,0,0,0,0,0],"sum_hessian":[2.0772704E2,1.641336E2,4.359342E1,1.483772E2,1.575642E1,3.826167E1,5.3317494E0,3.3484848E0,1.450287E2,1.0750007E1,5.006414E0,2.8474348E1,9.78732E0,1.0593699E2,3.9091713E1,8.470502E0,2.279504E0,3.38832E0,1.6180941E0,1.616266E1,1.2311688E1,7.8341765E0,1.9531441E0,1.2280838E0,1.0470891E2,2.4462753E1,1.4628961E1,3.477987E0,4.992515E0,1.2762917E0,1.0032122E0,1.9651808E0,1.4231391E0,1.3709212E1,2.4534473E0,8.961052E0,3.3506372E0,2.7503655E0,5.083811E0],"tree_param":{"num_deleted":"0","num_feature":"6","num_nodes":"39","size_leaf_vector":"1"}},{"base_weights":[-6.3099414E-2,1.2425286E0,-5.1089203E-1,5.639667E-1,2.5753188E0,-7.492533E-1,1.4950805E0,-1.9748015E-2,2.2263143E0,2.961422E-1,1.492173E0,-8.3414996E-1,2.0801918E-1,1.0268915E0,3.1895778E-1,-2.6269385E-1,9.153172E-1,2.9549084E0,-1.6845798E-1,5.2786946E-1,2.4041696E-1,-3.976976E-1,-9.249326E-1,1.9075863E0,4.0267354E-1,8.4842734E-2,-4.1405316E-2,-3.323176E-2,1.4461713E-1,3.271304E-1,9.1657214E-2,3.0243048E-2,-5.6135267E-2,-1.5600743E-2,1.1517811E-1,-5.2776515E-2,9.275877E-2,-9.407032E-2,-1.7651534E-2,2.6608825E-1,-2.1796992E-2,1.4447837E-1,4.6534603E-3],"categories":[],"categories_nodes":[],"categories_segments":[],"categories_sizes":[],"default_left":[0,0,0,0,0,0,0,0,0,0,0,0,0,0,0,0,0,0,0,0,0,0,0,0,0,0,0,0,0,0,0,0,0,0,0,0,0,0,0,0,0,0,0],"id":4,"left_children":[1,3,5,7,9,11,13,15,17,-1,19,21,-1,23,-1,25,27,29,31,33,-1,35,37,39,41,-1,-1,-1,-1,-1,-1,-1,-1,-1,-1,-1,-1,-1,-1,-1,-1,-1,-1],"loss_changes":[1.1868267E2,4.5445244E1,7.334689E1,3.46287E1,2.7800827E0,3.43267E1,9.717129E0,6.4581947E0,1.6674957E1,0E0,4.4818296E0,4.879738E0,0E0,7.0967007E0,0E0,4.1357694E0,4.3668423E0,1.6209908E0,7.449392E-1,2.0825996E0,0E0,4.722893E0,1.1190948E0,9.653038E0,3.5104513E0,0E0,0E0,0E0,0E0,0E0,0E0,0E0,0E0,0E0,0E0,0E0,0E0,0E0,0E0,0E0,0E0,0E0,0E0],"parents":[2147483647,0,0,1,1,2,2,3,3,4,4,5,5,6,6,7,7,8,8,10,10,11,11,13,13,15,15,16,16,17,17,18,18,19,19,21,21,22,22,23,23,24,24],"right_children":[2,4,6,8,10,12,14,16,18,-1,20,22,-1,24,-1,26,28,30,32,34,-1,36,38,40,42,-1,-1,-1,-1,-1,-1,-1,-1,-1,-1,-1,-1,-1,-1,-1,-1,-1,-1],"split_conditions":[1.375E3,3.02E2,2.05E2,1.87E2,1.62E2,2.456E3,2.25E2,3.014E2,2E0,2.961422E-1,3.029E2,1.422E3,2.0801918E-1,1.456E3,3.1895778E-1,2.973E2,1.309E3,3.008E2,1.344E3,1.97E2,2.4041696E-1,1.419E3,2.113E3,2E0,2.07E2,8.4842734E-2,-4.1405316E-2,-3.323176E-2,1.4461713E-1,3.271304E-1,9.1657214E-2,3.0243048E-2,-5.6135267E-2,-1.5600743E-2,1.1517811E-1,-5.2776515E-2,9.275877E-2,-9.407032E-2,-1.7651534E-2,2.6608825E-1,-2.1796992E-2,1.4447837E-1,4.6534603E-3],"split_indices":[3,1,5,5,5,3,5,1,0,0,1,3,0,3,0,1,3,1,3,5,0,3,3,0,5,0,0,0,0,0,0,0,0,0,0,0,0,0,0,0,0,0,0],"split_type":[0,0,0,0,0,0,0,0,0,0,0,0,0,0,0,0,0,0,0,0,0,0,0,0,0,0,0,0,0,0,0,0,0,0,0,0,0,0,0,0,0,0,0],"sum_hessian":[2.0091183E2,5.0856083E1,1.5005574E2,3.4641994E1,1.6214087E1,1.3467891E2,1.5376835E1,2.6370432E1,8.271562E0,1.0674804E1,5.5392833E0,1.3144028E2,3.2386398E0,1.3306318E1,2.070516E0,2.1502724E1,4.867709E0,6.1626997E0,2.1088614E0,3.459827E0,2.0794563E0,2.3558697E1,1.0788158E2,4.6664996E0,8.639819E0,2.0258293E0,1.9476894E1,1.5645752E0,3.303134E0,4.8110304E0,1.3516693E0,1.0639529E0,1.0449085E0,2.0083754E0,1.4514514E0,2.2001204E1,1.5574932E0,1.0540359E2,2.4779851E0,3.2594867E0,1.4070127E0,1.4220153E0,7.217804E0],"tree_param":{"num_deleted":"0","num_feature":"6","num_nodes":"43","size_leaf_vector":"1"}},{"base_weights":[6.703048E-3,1.148855E0,-5.060157E-1,2.77188E-1,1.4746536E0,-7.6083905E-1,1.2491084E0,-6.8070036E-1,1.4955738E0,1.7256411E0,1.340161E-1,-8.829939E-1,2.0960549E-1,6.564604E-1,2.2890954E0,-9.321814E-2,8.171885E-2,3.32989E-1,1.8783145E-1,2.2823198E0,1.3658786E0,-8.895062E-2,1.2658021E0,-9.553945E-1,2.201505E-1,8.933614E-1,-3.8562462E-1,3.3838686E-2,2.6672394E0,-6.0316414E-2,1.1188813E-1,1.0279705E-1,2.6254126E-1,1.6653921E-2,1.472395E-1,5.0055455E-2,1.6588514E-1,1.6337743E-2,-9.71332E-2,1.05421476E-1,-1.6578194E-2,-5.3958338E-2,-3.5368558E-3,7.7735834E-2,3.0445212E-1],"categories":[],"categories_nodes":[],"categories_segments":[],"categories_sizes":[],"default_left":[0,0,0,0,0,0,0,0,0,0,0,0,0,0,0,0,0,0,0,0,0,0,0,0,0,0,0,0,0,0,0,0,0,0,0,0,0,0,0,0,0,0,0,0,0],"id":5,"left_children":[1,3,5,7,9,11,13,15,17,19,21,23,-1,25,27,-1,-1,29,-1,31,33,-1,35,37,-1,39,41,-1,43,-1,-1,-1,-1,-1,-1,-1,-1,-1,-1,-1,-1,-1,-1,-1,-1],"loss_changes":[1.1811907E2,1.733802E1,6.3216522E1,2.2298187E1,1.4997162E1,4.4493774E1,9.609489E0,4.865942E0,3.0848484E0,4.5002975E0,1.06492E1,2.8429375E1,0E0,3.525837E0,3.628456E0,0E0,0E0,3.0885286E0,0E0,3.0857773E0,3.0245552E0,0E0,4.6803808E-1,2.2248688E0,0E0,2.0149364E0,1.472973E-1,0E0,1.1982803E0,0E0,0E0,0E0,0E0,0E0,0E0,0E0,0E0,0E0,0E0,0E0,0E0,0E0,0E0,0E0,0E0],"parents":[2147483647,0,0,1,1,2,2,3,3,4,4,5,5,6,6,7,7,8,8,9,9,10,10,11,11,13,13,14,14,17,17,19,19,20,20,22,22,23,23,25,25,26,26,28,28],"right_children":[2,4,6,8,10,12,14,16,18,20,22,24,-1,26,28,-1,-1,30,-1,32,34,-1,36,38,-1,40,42,-1,44,-1,-1,-1,-1,-1,-1,-1,-1,-1,-1,-1,-1,-1,-1,-1,-1],"split_conditions":[1.382E3,3.098E2,2.05E2,6.03E1,3.121E2,2.456E3,4.59E1,2.05E2,1.28E3,3.106E2,5.68E1,5.87E1,2.0960549E-1,4.14E1,2.08E2,-9.321814E-2,8.171885E-2,6.4E1,1.8783145E-1,3.101E2,4.73E1,-8.895062E-2,1.45E2,1.58E1,2.201505E-1,2.29E2,4.34E1,3.3838686E-2,3.095E2,-6.0316414E-2,1.1188813E-1,1.0279705E-1,2.6254126E-1,1.6653921E-2,1.472395E-1,5.0055455E-2,1.6588514E-1,1.6337743E-2,-9.71332E-2,1.05421476E-1,-1.6578194E-2,-5.3958338E-2,-3.5368558E-3,7.7735834E-2,3.0445212E-1],"split_indices":[3,2,5,4,2,3,4,5,3,2,4,4,0,4,5,0,0,4,0,2,4,0,5,4,0,5,4,0,2,0,0,0,0,0,0,0,0,0,0,0,0,0,0,0,0],"split_type":[0,0,0,0,0,0,0,0,0,0,0,0,0,0,0,0,0,0,0,0,0,0,0,0,0,0,0,0,0,0,0,0,0,0,0,0,0,0,0,0,0,0,0,0,0],"sum_hessian":[1.997124E2,6.1491306E1,1.382211E2,1.7233706E1,4.42576E1,1.2119196E2,1.7029139E1,9.895347E0,7.3383594E0,3.703661E1,7.2209888E0,1.16885124E2,4.3068404E0,1.188663E1,5.1425085E0,8.796217E0,1.0991297E0,2.2806969E0,5.0576625E0,1.2441417E1,2.4595194E1,3.904265E0,3.316724E0,1.148789E2,2.006225E0,9.801204E0,2.0854259E0,1.142683E0,3.9998255E0,1.146956E0,1.1337409E0,3.530407E0,8.91101E0,2.2152908E0,2.2379904E1,1.8969569E0,1.4197671E0,1.4835858E0,1.1339531E2,8.51298E0,1.2882234E0,1.0731652E0,1.0122608E0,1.1749048E0,2.8249207E0],"tree_param":{"num_deleted":"0","num_feature":"6","num_nodes":"45","size_leaf_vector":"1"}},{"base_weights":[-2.8053707E-2,-4.1511142E-1,1.0923315E0,-5.788731E-1,1.2919267E0,6.9481695E-1,2.0256956E0,1.5631776E-1,-6.8315196E-1,7.8726757E-1,2.136683E0,9.490774E-2,1.5438341E0,-3.160008E-2,2.248765E0,-8.657189E-1,-3.373884E-1,1.4730518E0,-2.2961465E-1,7.274764E-2,2.4461709E-1,-5.918478E-1,3.6752E-1,9.945388E-1,2.2643967E-1,2.6245055E-1,2.9727316E-1,-9.310375E-2,8.726121E-3,-8.4901646E-2,-3.2256288E-3,1.8815702E-1,-1.1328152E-2,-7.3843256E-2,5.728362E-2,-8.509135E-2,2.8653815E-2,6.2265564E-2,-7.908309E-2,1.2027186E-1,-2.6904881E-2,-2.032926E-2,6.724898E-2],"categories":[],"categories_nodes":[],"categories_segments":[],"categories_sizes":[],"default_left":[0,0,0,0,0,0,0,0,0,0,0,0,0,0,0,0,0,0,0,0,0,0,0,0,0,0,0,0,0,0,0,0,0,0,0,0,0,0,0,0,0,0,0],"id":6,"left_children":[1,3,5,7,9,11,13,-1,15,17,19,21,23,-1,25,27,29,31,33,-1,-1,35,37,39,-1,-1,41,-1,-1,-1,-1,-1,-1,-1,-1,-1,-1,-1,-1,-1,-1,-1,-1],"loss_changes":[8.448525E1,4.121125E1,1.7155018E1,3.0723938E1,3.8513584E0,1.8499651E1,8.243706E0,0E0,7.74366E0,7.108937E0,8.311653E-2,4.4331045E0,3.7213936E0,0E0,8.964882E0,5.2273254E0,7.0956745E0,4.0582447E0,2.3729076E0,0E0,0E0,1.7870109E0,5.4383764E0,3.0453787E0,0E0,0E0,7.5154006E-1,0E0,0E0,0E0,0E0,0E0,0E0,0E0,0E0,0E0,0E0,0E0,0E0,0E0,0E0,0E0,0E0],"parents":[2147483647,0,0,1,1,2,2,3,3,4,4,5,5,6,6,8,8,9,9,10,10,11,11,12,12,14,14,15,15,16,16,17,17,18,18,21,21,22,22,23,23,26,26],"right_children":[2,4,6,8,10,12,14,-1,16,18,20,22,24,-1,26,28,30,32,34,-1,-1,36,38,40,-1,-1,42,-1,-1,-1,-1,-1,-1,-1,-1,-1,-1,-1,-1,-1,-1,-1,-1],"split_conditions":[5.27E1,2.13E2,1.81E2,1.38E1,4.88E1,6.15E1,1E0,1.5631776E-1,4.44E1,3.91E1,2.17E2,3.098E2,6.73E1,-3.160008E-2,2E0,2.03E2,3.1E2,2.28E2,4.51E1,7.274764E-2,2.4461709E-1,2E0,3.121E2,1.43E2,2.2643967E-1,2.6245055E-1,5.87E1,-9.310375E-2,8.726121E-3,-8.4901646E-2,-3.2256288E-3,1.8815702E-1,-1.1328152E-2,-7.3843256E-2,5.728362E-2,-8.509135E-2,2.8653815E-2,6.2265564E-2,-7.908309E-2,1.2027186E-1,-2.6904881E-2,-2.032926E-2,6.724898E-2],"split_indices":[4,5,5,4,4,4,0,0,4,4,5,2,4,0,0,5,2,5,4,0,0,0,2,5,0,0,4,0,0,0,0,0,0,0,0,0,0,0,0,0,0,0,0],"split_type":[0,0,0,0,0,0,0,0,0,0,0,0,0,0,0,0,0,0,0,0,0,0,0,0,0,0,0,0,0,0,0,0,0,0,0,0,0,0,0,0,0,0,0],"sum_hessian":[1.9277628E2,1.4374605E2,4.9030228E1,1.3176619E2,1.1979866E1,3.5608982E1,1.3421247E1,5.4673734E0,1.2629881E2,8.709024E0,3.2708423E0,2.151701E1,1.4091972E1,1.1310731E0,1.2290174E1,8.167155E1,4.4627262E1,4.933369E0,3.775655E0,1.1923295E0,2.078513E0,5.78148E0,1.5735531E1,9.346911E0,4.745061E0,1.0016688E1,2.2734852E0,7.6454285E1,5.2172623E0,1.6006323E1,2.862094E1,3.7750828E0,1.1582863E0,2.3593912E0,1.4162638E0,4.488844E0,1.292636E0,1.3274241E1,2.4612892E0,8.06616E0,1.2807518E0,1.1703517E0,1.1031334E0],"tree_param":{"num_deleted":"0","num_feature":"6","num_nodes":"43","size_leaf_vector":"1"}},{"base_weights":[4.0388566E-2,7.229275E-1,-4.4082117E-1,2.3944125E-1,1.5488694E0,-5.94626E-1,1.7434978E0,-3.538936E-1,9.30824E-1,1.797728E0,6.0752813E-2,-6.668044E-1,2.3610497E-1,1.888412E-1,6.308527E-2,-1.1401858E-1,-9.271863E-2,5.612002E-1,1.840515E-1,2.3337868E-1,1.2561951E0,-5.8175303E-2,4.1556755E-1,-7.090547E-1,-2.4156427E-1,-8.2982324E-2,3.6776909E-3,1.5750898E-2,1.5776047E-1,1.3476138E-1,1.6436135E-2,5.8117237E-2,9.9658305E-3,-7.244827E-2,7.997705E-3,6.718611E-2,-4.361191E-2],"categories":[],"categories_nodes":[],"categories_segments":[],"categories_sizes":[],"default_left":[0,0,0,0,0,0,0,0,0,0,0,0,0,0,0,0,0,0,0,0,0,0,0,0,0,0,0,0,0,0,0,0,0,0,0,0,0],"id":7,"left_children":[1,3,5,7,9,11,13,15,17,19,21,23,-1,-1,-1,25,-1,27,-1,-1,29,-1,31,33,35,-1,-1,-1,-1,-1,-1,-1,-1,-1,-1,-1,-1],"loss_changes":[6.3425457E1,3.1506958E1,3.9104366E1,2.1470406E1,1.0738647E1,2.4316471E1,5.151558E-2,3.8079093E0,7.062729E0,4.343254E0,1.434439E0,1.7123489E0,0E0,0E0,0E0,2.3192868E0,0E0,7.36654E0,0E0,0E0,1.2390232E0,0E0,1.4892691E-1,1.2125511E0,2.2464008E0,0E0,0E0,0E0,0E0,0E0,0E0,0E0,0E0,0E0,0E0,0E0,0E0],"parents":[2147483647,0,0,1,1,2,2,3,3,4,4,5,5,6,6,7,7,8,8,9,9,10,10,11,11,15,15,17,17,20,20,22,22,23,23,24,24],"right_children":[2,4,6,8,10,12,14,16,18,20,22,24,-1,-1,-1,26,-1,28,-1,-1,30,-1,32,34,36,-1,-1,-1,-1,-1,-1,-1,-1,-1,-1,-1,-1],"split_conditions":[1.406E3,3.019E2,2.262E3,5.68E1,1.378E3,5.82E1,1.38E1,2E0,1.354E3,5.3E1,4.8E1,4.85E1,2.3610497E-1,1.888412E-1,6.308527E-2,1.323E3,-9.271863E-2,6.73E1,1.840515E-1,2.3337868E-1,3.037E2,-5.8175303E-2,3.024E2,2.047E3,4.9E1,-8.2982324E-2,3.6776909E-3,1.5750898E-2,1.5776047E-1,1.3476138E-1,1.6436135E-2,5.8117237E-2,9.9658305E-3,-7.244827E-2,7.997705E-3,6.718611E-2,-4.361191E-2],"split_indices":[3,1,3,4,3,4,4,0,3,4,4,4,0,0,0,3,0,4,0,0,1,0,1,3,4,0,0,0,0,0,0,0,0,0,0,0,0],"split_type":[0,0,0,0,0,0,0,0,0,0,0,0,0,0,0,0,0,0,0,0,0,0,0,0,0,0,0,0,0,0,0,0,0,0,0,0,0],"sum_hessian":[1.9113837E2,7.882795E1,1.1231042E2,5.053556E1,2.829239E1,1.05602394E2,6.7080245E0,2.745888E1,2.3076683E1,2.4060658E1,4.2317343E0,1.0384097E2,1.7614257E0,5.3181467E0,1.3898777E0,2.0204056E1,7.254823E0,1.7559042E1,5.5176406E0,1.0428239E1,1.3632418E1,1.2779676E0,2.9537666E0,9.3849045E1,9.991926E0,2.7321167E0,1.747194E1,1.339417E1,4.164873E0,1.2363004E1,1.2694143E0,1.3869982E0,1.5667684E0,9.212945E1,1.7195995E0,1.3237342E0,8.668192E0],"tree_param":{"num_deleted":"0","num_feature":"6","num_nodes":"37","size_leaf_vector":"1"}},{"base_weights":[4.5902565E-2,-3.384757E-1,7.241552E-1,1.1956486E0,-4.692696E-1,5.180296E-1,1.3705558E0,-3.258633E-2,1.4158363E0,-7.2236186E-1,5.129079E-2,2.7955145E-1,1.348356E0,2.1871114E-1,3.459109E-2,1.6502021E-1,4.9931002E-1,-7.7018785E-1,-3.3121088E-1,-5.1220447E-1,8.2891816E-1,-8.8208415E-2,3.9627558E-1,1.4649895E-1,9.913368E-3,-2.9129788E-1,8.939239E-2,8.863807E-2,-1.0644553E-2,-5.1019043E-2,-8.4504806E-2,2.725311E-2,-7.096087E-2,1.34724965E-2,-5.9654493E-2,2.1553181E-1,4.1484744E-3,6.8582796E-2,-4.2287447E-3,2.1112666E-2,-4.76613E-2],"categories":[],"categories_nodes":[],"categories_segments":[],"categories_sizes":[],"default_left":[0,0,0,0,0,0,0,0,0,0,0,0,0,0,0,0,0,0,0,0,0,0,0,0,0,0,0,0,0,0,0,0,0,0,0,0,0,0,0,0,0],"id":8,"left_children":[1,3,5,7,9,11,13,-1,15,17,19,21,23,-1,25,-1,27,29,31,33,35,-1,37,-1,-1,39,-1,-1,-1,-1,-1,-1,-1,-1,-1,-1,-1,-1,-1,-1,-1],"loss_changes":[4.9990154E1,2.5135315E1,8.528679E0,3.7790546E0,1.4999567E1,1.0351792E1,1.7550074E1,0E0,1.0744915E0,1.1756554E0,1.7113518E1,6.2279196E0,1.578085E0,0E0,2.2614145E0,0E0,8.5254115E-1,8.8058853E-1,2.4978275E0,1.3190255E0,1.7023361E1,0E0,5.119302E0,0E0,0E0,6.532002E-1,0E0,0E0,0E0,0E0,0E0,0E0,0E0,0E0,0E0,0E0,0E0,0E0,0E0,0E0,0E0],"parents":[2147483647,0,0,1,1,2,2,3,3,4,4,5,5,6,6,8,8,9,9,10,10,11,11,12,12,14,14,16,16,17,17,18,18,19,19,20,20,22,22,25,25],"right_children":[2,4,6,8,10,12,14,-1,16,18,20,22,24,-1,26,-1,28,30,32,34,36,-1,38,-1,-1,40,-1,-1,-1,-1,-1,-1,-1,-1,-1,-1,-1,-1,-1,-1,-1],"split_conditions":[5.05E1,1.69E1,3.024E2,1E0,4.43E1,6.4E1,3.121E2,-3.258633E-2,1.38E1,3.026E2,3.016E2,1E0,3.113E2,2.1871114E-1,6.15E1,1.6502021E-1,2.991E2,3.07E1,3.121E2,1E0,3.11E2,-8.8208415E-2,3.105E2,1.4649895E-1,9.913368E-3,3.029E2,8.939239E-2,8.863807E-2,-1.0644553E-2,-5.1019043E-2,-8.4504806E-2,2.725311E-2,-7.096087E-2,1.34724965E-2,-5.9654493E-2,2.1553181E-1,4.1484744E-3,6.8582796E-2,-4.2287447E-3,2.1112666E-2,-4.76613E-2],"split_indices":[4,4,1,0,4,4,2,0,4,1,1,0,2,0,4,0,1,4,2,0,2,0,2,0,0,1,0,0,0,0,0,0,0,0,0,0,0,0,0,0,0],"split_type":[0,0,0,0,0,0,0,0,0,0,0,0,0,0,0,0,0,0,0,0,0,0,0,0,0,0,0,0,0,0,0,0,0,0,0,0,0,0,0,0,0],"sum_hessian":[1.898093E2,1.2147062E2,6.8338684E1,8.902997E0,1.1256762E2,5.318147E1,1.5157213E1,1.0648538E0,7.8381433E0,7.5481476E1,3.7086143E1,4.2353725E1,1.0827743E1,9.011927E0,6.145286E0,5.6045127E0,2.2336307E0,6.639441E1,9.087066E0,2.1701687E1,1.5384458E1,3.2685184E0,3.908521E1,9.745166E0,1.0825765E0,4.934841E0,1.2104453E0,1.0801579E0,1.1534728E0,1.6590178E1,4.9804234E1,3.6088474E0,5.478218E0,2.4340467E0,1.9267641E1,5.0838213E0,1.0300636E1,2.3202452E1,1.5882756E1,1.2921884E0,3.6426525E0],"tree_param":{"num_deleted":"0","num_feature":"6","num_nodes":"41","size_leaf_vector":"1"}},{"base_weights":[-2.7089095E-2,-2.660964E-1,1.2758152E0,4.5980856E-1,-7.078208E-1,6.0515136E-1,1.7370167E0,-2.1858867E-1,6.9351184E-1,1.4717013E-1,-8.685183E-1,1.2856073E0,-2.8137958E-1,4.8266155E-1,1.9752328E-1,-6.0657346E-1,1.5336636E-1,8.4674066E-1,-3.1754786E-1,-9.554446E-1,1.5597047E-1,7.427216E-1,2.4521635E-1,2.2817382E-1,-5.8599365E-1,1.1286557E-1,-5.817132E-2,-9.163702E-2,-1.1445902E-2,1.5757237E-1,6.592214E-2,-7.33915E-2,8.07123E-2,-9.638275E-2,-1.5551925E-2,1.9407067E-1,1.8312959E-2,4.7056504E-2,-1.0215699E-2,-7.412168E-2,-3.3006247E-3],"categories":[],"categories_nodes":[],"categories_segments":[],"categories_sizes":[],"default_left":[0,0,0,0,0,0,0,0,0,0,0,0,0,0,0,0,0,0,0,0,0,0,0,0,0,0,0,0,0,0,0,0,0,0,0,0,0,0,0,0,0],"id":9,"left_children":[1,3,5,7,9,11,13,15,17,-1,19,21,23,25,-1,27,-1,29,31,33,-1,35,-1,37,39,-1,-1,-1,-1,-1,-1,-1,-1,-1,-1,-1,-1,-1,-1,-1,-1],"loss_changes":[5.783335E1,5.061518E1,7.854294E0,9.654536E0,3.556632E1,8.3645315E0,3.984436E0,1.1888209E1,7.21266E0,0E0,2.0867943E1,3.0456886E0,1.1552268E0,3.379912E0,0E0,2.0162077E0,0E0,4.319105E0,3.6951523E0,4.486084E-1,0E0,4.1220036E0,0E0,3.028565E-1,3.531438E-1,0E0,0E0,0E0,0E0,0E0,0E0,0E0,0E0,0E0,0E0,0E0,0E0,0E0,0E0,0E0,0E0],"parents":[2147483647,0,0,1,1,2,2,3,3,4,4,5,5,6,6,7,7,8,8,10,10,11,11,12,12,13,13,15,15,17,17,18,18,19,19,21,21,23,23,24,24],"right_children":[2,4,6,8,10,12,14,16,18,-1,20,22,24,26,-1,28,-1,30,32,34,-1,36,-1,38,40,-1,-1,-1,-1,-1,-1,-1,-1,-1,-1,-1,-1,-1,-1,-1,-1],"split_conditions":[2.03E2,1.378E3,4.42E1,3.098E2,1.38E1,3.62E1,2.07E2,6.73E1,3.121E2,1.4717013E-1,5.87E1,2.25E2,2.12E2,1.386E3,1.9752328E-1,6.03E1,1.5336636E-1,4.87E1,6.25E1,5.76E1,1.5597047E-1,1.555E3,2.4521635E-1,3.103E2,1.525E3,1.1286557E-1,-5.817132E-2,-9.163702E-2,-1.1445902E-2,1.5757237E-1,6.592214E-2,-7.33915E-2,8.07123E-2,-9.638275E-2,-1.5551925E-2,1.9407067E-1,1.8312959E-2,4.7056504E-2,-1.0215699E-2,-7.412168E-2,-3.3006247E-3],"split_indices":[5,3,4,2,4,4,5,4,2,0,4,5,5,3,0,4,0,4,4,4,0,3,0,2,3,0,0,0,0,0,0,0,0,0,0,0,0,0,0,0,0],"split_type":[0,0,0,0,0,0,0,0,0,0,0,0,0,0,0,0,0,0,0,0,0,0,0,0,0,0,0,0,0,0,0,0,0,0,0,0,0,0,0,0,0],"sum_hessian":[1.8362808E2,1.5583684E2,2.7791246E1,5.893895E1,9.689789E1,1.2266227E1,1.5525021E1,1.5118225E1,4.382072E1,6.0935507E0,9.0804344E1,6.6850038E0,5.581223E0,2.9607885E0,1.2564232E1,1.291288E1,2.2053459E0,3.8194733E1,5.6259913E0,8.825161E1,2.5527337E0,5.678877E0,1.0061269E0,2.1820562E0,3.399167E0,1.8049368E0,1.1558516E0,7.3952813E0,5.5175986E0,6.300084E0,3.1894648E1,4.359493E0,1.2664982E0,8.713358E1,1.118025E0,1.0222822E0,4.6565948E0,1.0136963E0,1.16836E0,2.388368E0,1.0107992E0],"tree_param":{"num_deleted":"0","num_feature":"6","num_nodes":"41","size_leaf_vector":"1"}},{"base_weights":[3.4591258E-2,-1.9050436E-1,1.2376474E0,4.8535964E-1,-6.5688187E-1,8.741027E-1,2.2851303E0,8.576918E-3,1.2295121E0,9.582647E-1,-8.195584E-1,4.6691743E-1,1.7496653E-1,2.5615606E-1,6.291196E-2,-3.24388E-1,1.0827627E0,1.8455782E0,8.908125E-1,3.246563E-3,1.0852902E0,-9.433987E-1,1.1951154E0,8.2998586E-1,-5.637636E-1,-6.7028105E-2,9.428352E-2,5.4083984E-2,1.7148656E-1,2.8935435E-1,5.435101E-2,3.2918677E-2,1.13961734E-1,2.4751192E-2,1.21953085E-1,-6.0658064E-4,-9.657725E-2,2.172688E-2,1.6637175E-1,1.5987547E-1,3.9447412E-2,-8.568641E-2,2.5395349E-2],"categories":[],"categories_nodes":[],"categories_segments":[],"categories_sizes":[],"default_left":[0,0,0,0,0,0,0,0,0,0,0,0,0,0,0,0,0,0,0,0,0,0,0,0,0,0,0,0,0,0,0,0,0,0,0,0,0,0,0,0,0,0,0],"id":10,"left_children":[1,3,5,7,9,11,13,15,17,19,21,23,-1,-1,-1,25,27,29,31,-1,33,35,37,39,41,-1,-1,-1,-1,-1,-1,-1,-1,-1,-1,-1,-1,-1,-1,-1,-1,-1,-1],"loss_changes":[4.9805084E1,4.919557E1,9.039806E0,2.2656477E1,2.5004025E1,7.431326E0,1.5233269E0,1.463847E1,3.5602036E0,1.0108528E0,2.2155098E1,6.887724E0,0E0,0E0,0E0,1.4335321E1,2.3893232E0,9.227228E0,2.1437788E0,0E0,5.7438374E-1,1.67099E0,2.0770612E0,3.752368E0,1.4314369E0,0E0,0E0,0E0,0E0,0E0,0E0,0E0,0E0,0E0,0E0,0E0,0E0,0E0,0E0,0E0,0E0,0E0,0E0],"parents":[2147483647,0,0,1,1,2,2,3,3,4,4,5,5,6,6,7,7,8,8,9,9,10,10,11,11,15,15,16,16,17,17,18,18,20,20,21,21,22,22,23,23,24,24],"right_children":[2,4,6,8,10,12,14,16,18,20,22,24,-1,-1,-1,26,28,30,32,-1,34,36,38,40,42,-1,-1,-1,-1,-1,-1,-1,-1,-1,-1,-1,-1,-1,-1,-1,-1,-1,-1],"split_conditions":[2.03E2,1.378E3,2.22E2,3.02E2,1.58E1,5.27E1,3.028E2,6.4E1,6.7E1,1.2E1,5.76E1,4.81E1,1.7496653E-1,2.5615606E-1,6.291196E-2,1.8E2,1.309E3,5.3E1,3.024E2,3.246563E-3,2.456E3,1.382E3,9.6E1,1.456E3,2.16E2,-6.7028105E-2,9.428352E-2,5.4083984E-2,1.7148656E-1,2.8935435E-1,5.435101E-2,3.2918677E-2,1.13961734E-1,2.4751192E-2,1.21953085E-1,-6.0658064E-4,-9.657725E-2,2.172688E-2,1.6637175E-1,1.5987547E-1,3.9447412E-2,-8.568641E-2,2.5395349E-2],"split_indices":[5,3,5,1,4,4,1,4,5,5,4,4,0,0,0,5,3,4,1,0,3,3,5,3,5,0,0,0,0,0,0,0,0,0,0,0,0,0,0,0,0,0,0],"split_type":[0,0,0,0,0,0,0,0,0,0,0,0,0,0,0,0,0,0,0,0,0,0,0,0,0,0,0,0,0,0,0,0,0,0,0,0,0,0,0,0,0,0,0],"sum_hessian":[1.8204585E2,1.5406201E2,2.798384E1,6.288694E1,9.117507E1,2.2135769E1,5.848072E0,3.894572E1,2.3941221E1,7.8953032E0,8.327976E1,1.6155733E1,5.9800367E0,4.5429177E0,1.3051538E0,3.0263096E1,8.682624E0,6.914788E0,1.7026432E1,1.1040734E0,6.7912297E0,7.8958015E1,4.3217473E0,1.20912E1,4.064533E0,2.4143976E1,6.11912E0,5.6738567E0,3.0087674E0,3.1540186E0,3.7607691E0,5.940361E0,1.1086072E1,1.3306442E0,5.4605856E0,1.8703917E0,7.708762E1,1.8742805E0,2.447467E0,3.4066951E0,8.6845045E0,2.9568233E0,1.1077101E0],"tree_param":{"num_deleted":"0","num_feature":"6","num_nodes":"43","size_leaf_vector":"1"}},{"base_weights":[-5.7553753E-2,3.7715906E-1,-4.623056E-1,1.5719578E-1,1.0377704E0,-5.84675E-1,9.758964E-1,3.589954E-1,-3.3570546E-1,1.9369832E0,-2.6286036E-1,-3.2755682E-1,-6.738883E-1,1.3377498E-1,5.0764424E-1,4.9850205E-1,-1.13596044E-1,6.121506E-2,-4.4347668E-1,2.1174715E0,-8.284284E-3,5.6456853E-2,-5.5314195E-1,5.0159376E-2,-5.097632E-1,-7.62188E-1,-3.1313196E-1,-1.979681E-2,1.0239413E-1,2.005974E-2,1.5435988E-1,1.4227486E-1,-4.6764847E-2,-7.324885E-2,8.280508E-3,1.0616344E-1,2.8180382E-1,-8.34008E-2,-2.7059508E-2,-5.843435E-2,5.474602E-2,-6.487344E-2,-4.169238E-3,-1.4129524E-2,-8.075068E-2,1.7768297E-2,-4.7423005E-2],"categories":[],"categories_nodes":[],"categories_segments":[],"categories_sizes":[],"default_left":[0,0,0,0,0,0,0,0,0,0,0,0,0,0,0,0,0,0,0,0,0,0,0,0,0,0,0,0,0,0,0,0,0,0,0,0,0,0,0,0,0,0,0,0,0,0,0],"id":11,"left_children":[1,3,5,7,9,11,13,15,17,19,21,23,25,-1,27,29,31,-1,33,35,-1,-1,37,39,41,43,45,-1,-1,-1,-1,-1,-1,-1,-1,-1,-1,-1,-1,-1,-1,-1,-1,-1,-1,-1,-1],"loss_changes":[3.1207434E1,1.2273978E1,1.6723738E1,6.624542E0,2.53052E1,1.733881E0,6.0383606E-1,3.1472435E0,2.2645655E0,4.7887115E0,2.6053236E0,1.6701415E0,1.7463856E0,0E0,1.9922268E0,1.1016552E1,6.9199266E0,0E0,2.813553E0,5.6287117E0,0E0,0E0,3.7526274E-1,3.0608244E0,1.0273509E0,1.2749462E0,1.1873381E0,0E0,0E0,0E0,0E0,0E0,0E0,0E0,0E0,0E0,0E0,0E0,0E0,0E0,0E0,0E0,0E0,0E0,0E0,0E0,0E0],"parents":[2147483647,0,0,1,1,2,2,3,3,4,4,5,5,6,6,7,7,8,8,9,9,10,10,11,11,12,12,14,14,15,15,16,16,18,18,19,19,22,22,23,23,24,24,25,25,26,26],"right_children":[2,4,6,8,10,12,14,16,18,20,22,24,26,-1,28,30,32,-1,34,36,-1,-1,38,40,42,44,46,-1,-1,-1,-1,-1,-1,-1,-1,-1,-1,-1,-1,-1,-1,-1,-1,-1,-1,-1,-1],"split_conditions":[1.406E3,3.024E2,2.456E3,2E0,3.121E2,1.462E3,3.002E2,3.11E2,2.973E2,1.378E3,1.296E3,2.992E2,3.114E2,1.3377498E-1,3.018E2,3.016E2,1.28E3,6.121506E-2,3.015E2,3.027E2,-8.284284E-3,5.6456853E-2,3.031E2,2.98E2,3.026E2,3.079E2,3.008E2,-1.979681E-2,1.0239413E-1,2.005974E-2,1.5435988E-1,1.4227486E-1,-4.6764847E-2,-7.324885E-2,8.280508E-3,1.0616344E-1,2.8180382E-1,-8.34008E-2,-2.7059508E-2,-5.843435E-2,5.474602E-2,-6.487344E-2,-4.169238E-3,-1.4129524E-2,-8.075068E-2,1.7768297E-2,-4.7423005E-2],"split_indices":[3,1,3,0,2,3,1,2,1,3,3,1,2,0,1,1,3,0,1,1,0,0,1,1,1,2,1,0,0,0,0,0,0,0,0,0,0,0,0,0,0,0,0,0,0,0,0],"split_type":[0,0,0,0,0,0,0,0,0,0,0,0,0,0,0,0,0,0,0,0,0,0,0,0,0,0,0,0,0,0,0,0,0,0,0,0,0,0,0,0,0,0,0,0,0,0,0],"sum_hessian":[1.7537355E2,8.459006E1,9.078349E1,6.438859E1,2.0201468E1,8.42118E1,6.571693E0,4.5877476E1,1.8511114E1,1.16546E1,8.546867E0,2.2895926E1,6.1315876E1,2.6595554E0,3.9121375E0,3.5378956E1,1.0498519E1,1.4120376E0,1.7099077E1,1.0654215E1,1.0003856E0,1.9743141E0,6.5725536E0,7.6864743E0,1.5209451E1,4.8365143E1,1.2950733E1,1.9135249E0,1.9986126E0,2.8458738E1,6.9202175E0,1.4009384E0,9.097581E0,1.0784736E1,6.314341E0,5.2528863E0,5.401328E0,2.3172944E0,4.255259E0,3.3004375E0,4.386037E0,1.1429912E1,3.7795396E0,3.5701342E0,4.479501E1,3.174892E0,9.775842E0],"tree_param":{"num_deleted":"0","num_feature":"6","num_nodes":"47","size_leaf_vector":"1"}},{"base_weights":[-3.7652127E-2,-2.622438E-1,9.683814E-1,-4.8954603E-1,5.666712E-1,5.944094E-1,1.6707081E0,-8.065483E-1,9.68759E-2,2.5148362E-1,1.5004466E0,2.6851702E-1,1.2449828E0,7.7555984E-1,1.8420838E-1,6.0326433E-1,-9.244712E-1,1.3939059E0,-5.615096E-1,-6.37547E-1,6.261529E-1,1.8364632E0,1.1931553E-2,5.9025663E-1,-7.117887E-1,7.344606E-3,1.5838084E0,2.6794453E-4,1.21413924E-1,9.951357E-2,-3.6219035E-3,-9.4861925E-2,-2.3873443E-2,-2.3328943E-2,1.9421248E-1,-9.726707E-2,-4.3034595E-3,-9.2870355E-2,1.5545005E-2,1.4977624E-1,3.6558043E-2,5.2762877E-2,2.0456031E-1,3.0974263E-2,1.2736608E-1,-2.0572271E-2,-8.064838E-2,7.447657E-2,1.9718741E-1],"categories":[],"categories_nodes":[],"categories_segments":[],"categories_sizes":[],"default_left":[0,0,0,0,0,0,0,0,0,0,0,0,0,0,0,0,0,0,0,0,0,0,0,0,0,0,0,0,0,0,0,0,0,0,0,0,0,0,0,0,0,0,0,0,0,0,0,0,0],"id":12,"left_children":[1,3,5,7,9,11,13,15,17,19,21,23,25,27,-1,29,31,33,35,37,39,41,-1,43,45,-1,47,-1,-1,-1,-1,-1,-1,-1,-1,-1,-1,-1,-1,-1,-1,-1,-1,-1,-1,-1,-1,-1,-1],"loss_changes":[3.9158253E1,2.6946793E1,7.316372E0,2.0828281E1,8.724299E0,4.3717575E0,1.7297173E-1,1.26210785E1,3.4991474E1,8.500693E0,3.309227E0,5.4866323E0,2.7151203E0,1.1508708E0,0E0,1.5912476E0,8.888893E-1,1.2741364E1,5.774558E0,1.9237244E0,3.4532132E0,5.7553864E-1,0E0,2.0288024E0,4.6031237E-2,0E0,3.171053E-1,0E0,0E0,0E0,0E0,0E0,0E0,0E0,0E0,0E0,0E0,0E0,0E0,0E0,0E0,0E0,0E0,0E0,0E0,0E0,0E0,0E0,0E0],"parents":[2147483647,0,0,1,1,2,2,3,3,4,4,5,5,6,6,7,7,8,8,9,9,10,10,11,11,12,12,13,13,15,15,16,16,17,17,18,18,19,19,20,20,21,21,23,23,24,24,26,26],"right_children":[2,4,6,8,10,12,14,16,18,20,22,24,26,28,-1,30,32,34,36,38,40,42,-1,44,46,-1,48,-1,-1,-1,-1,-1,-1,-1,-1,-1,-1,-1,-1,-1,-1,-1,-1,-1,-1,-1,-1,-1,-1],"split_conditions":[2.02E2,5.76E1,5.2E1,3.018E2,1.66E2,2.2E2,2.06E2,1.58E1,3.11E2,6.15E1,1.99E2,4.68E1,3.38E1,5.68E1,1.8420838E-1,2.996E2,1.95E2,4.43E1,3.03E2,3.021E2,2.1E1,1.74E2,1.1931553E-2,4.42E1,4.83E1,7.344606E-3,4.53E1,2.6794453E-4,1.21413924E-1,9.951357E-2,-3.6219035E-3,-9.4861925E-2,-2.3873443E-2,-2.3328943E-2,1.9421248E-1,-9.726707E-2,-4.3034595E-3,-9.2870355E-2,1.5545005E-2,1.4977624E-1,3.6558043E-2,5.2762877E-2,2.0456031E-1,3.0974263E-2,1.2736608E-1,-2.0572271E-2,-8.064838E-2,7.447657E-2,1.9718741E-1],"split_indices":[5,4,4,1,5,5,5,4,2,4,5,4,4,4,0,1,5,4,1,1,5,5,0,4,4,0,4,0,0,0,0,0,0,0,0,0,0,0,0,0,0,0,0,0,0,0,0,0,0],"split_type":[0,0,0,0,0,0,0,0,0,0,0,0,0,0,0,0,0,0,0,0,0,0,0,0,0,0,0,0,0,0,0,0,0,0,0,0,0,0,0,0,0,0,0,0,0,0,0,0,0],"sum_hessian":[1.711835E2,1.4054655E2,3.0636946E1,1.1062167E2,2.9924883E1,2.1196608E1,9.440339E0,7.1562004E1,3.905967E1,2.332205E1,6.6028314E0,1.5063548E1,6.133059E0,2.404803E0,7.035536E0,5.2060432E0,6.635596E1,1.27751875E1,2.6284481E1,6.7066383E0,1.6615412E1,5.045602E0,1.5572294E0,1.1640863E1,3.422685E0,1.6488156E0,4.4842434E0,1.2348374E0,1.1699656E0,2.8831263E0,2.322917E0,6.3728424E1,2.6275358E0,3.3642E0,9.410987E0,1.4170761E1,1.211372E1,4.780354E0,1.9262843E0,2.7313006E0,1.3884112E1,1.180524E0,3.865078E0,9.283527E0,2.3573353E0,1.0395628E0,2.3831222E0,2.341286E0,2.1429574E0],"tree_param":{"num_deleted":"0","num_feature":"6","num_nodes":"49","size_leaf_vector":"1"}},{"base_weights":[5.7984157E-3,-1.8865648E-1,8.8166445E-1,-4.3605074E-1,2.824295E-1,1.0688407E0,2.352528E-1,-5.540944E-1,1.3200298E-1,1.1737771E0,-1.4084564E-1,1.4462537E0,7.4900585E-1,-5.035042E-1,8.755418E-1,1.3890982E-1,-5.8132225E-1,-4.453039E-1,2.993107E-1,1.3802983E0,-3.6697425E-2,-6.217895E-1,3.516076E-1,5.9040296E-1,1.9499352E0,1.1206553E0,4.511553E-2,1.9346079E-2,-7.731737E-2,1.0392635E-1,1.794025E-2,-2.4271829E-2,4.3134578E-2,-2.9711349E-2,-6.214989E-2,1.5552536E-2,-7.007094E-2,5.5078413E-2,-4.387239E-3,8.447849E-2,2.0670961E-1,-8.970163E-4,-7.3065706E-2,1.5151386E-1,-5.235302E-2,1.1320501E-2,9.9168696E-2,2.2071163E-1,6.066711E-2,3.673794E-2,1.6107759E-1,-6.4683475E-2,8.772015E-2],"categories":[],"categories_nodes":[],"categories_segments":[],"categories_sizes":[],"default_left":[0,0,0,0,0,0,0,0,0,0,0,0,0,0,0,0,0,0,0,0,0,0,0,0,0,0,0,0,0,0,0,0,0,0,0,0,0,0,0,0,0,0,0,0,0,0,0,0,0,0,0,0,0],"id":13,"left_children":[1,3,5,7,9,11,13,15,17,19,21,23,25,27,29,31,33,35,37,39,-1,41,43,45,47,49,51,-1,-1,-1,-1,-1,-1,-1,-1,-1,-1,-1,-1,-1,-1,-1,-1,-1,-1,-1,-1,-1,-1,-1,-1,-1,-1],"loss_changes":[2.8322758E1,1.5985624E1,3.4038868E0,6.0835915E0,1.8076065E1,1.7106037E0,4.256161E0,1.4847069E0,1.7008373E0,5.4042816E0,8.053501E0,2.9623928E0,3.7694607E0,9.727781E-1,3.4763527E-1,5.0869066E-1,6.3502693E-1,7.302458E-1,1.161682E0,3.3229408E0,0E0,1.1340966E0,1.8086657E1,8.3938813E-1,5.8628654E-1,2.9210243E0,4.072526E0,0E0,0E0,0E0,0E0,0E0,0E0,0E0,0E0,0E0,0E0,0E0,0E0,0E0,0E0,0E0,0E0,0E0,0E0,0E0,0E0,0E0,0E0,0E0,0E0,0E0,0E0],"parents":[2147483647,0,0,1,1,2,2,3,3,4,4,5,5,6,6,7,7,8,8,9,9,10,10,11,11,12,12,13,13,14,14,15,15,16,16,17,17,18,18,19,19,21,21,22,22,23,23,24,24,25,25,26,26],"right_children":[2,4,6,8,10,12,14,16,18,20,22,24,26,28,30,32,34,36,38,40,-1,42,44,46,48,50,52,-1,-1,-1,-1,-1,-1,-1,-1,-1,-1,-1,-1,-1,-1,-1,-1,-1,-1,-1,-1,-1,-1,-1,-1,-1,-1],"split_conditions":[2.03E2,3.019E2,2E0,1.76E2,3.11E2,2.995E2,3.004E2,2.968E2,2.98E2,1.75E2,3.03E2,2.16E2,2.16E2,3.084E2,3.024E2,8.9E1,2.2E1,2.971E2,1.92E2,1.26E2,-3.6697425E-2,3.111E2,3.123E2,2.985E2,2.27E2,3.01E2,2.26E2,1.9346079E-2,-7.731737E-2,1.0392635E-1,1.794025E-2,-2.4271829E-2,4.3134578E-2,-2.9711349E-2,-6.214989E-2,1.5552536E-2,-7.007094E-2,5.5078413E-2,-4.387239E-3,8.447849E-2,2.0670961E-1,-8.970163E-4,-7.3065706E-2,1.5151386E-1,-5.235302E-2,1.1320501E-2,9.9168696E-2,2.2071163E-1,6.066711E-2,3.673794E-2,1.6107759E-1,-6.4683475E-2,8.772015E-2],"split_indices":[5,1,0,5,2,1,1,1,1,5,1,5,5,2,1,5,5,1,5,5,0,2,2,1,5,1,5,0,0,0,0,0,0,0,0,0,0,0,0,0,0,0,0,0,0,0,0,0,0,0,0,0,0],"split_type":[0,0,0,0,0,0,0,0,0,0,0,0,0,0,0,0,0,0,0,0,0,0,0,0,0,0,0,0,0,0,0,0,0,0,0,0,0,0,0,0,0,0,0,0,0,0,0,0,0,0,0,0,0],"sum_hessian":[1.6431831E2,1.3510718E2,2.9211136E1,8.863449E1,4.6472687E1,2.2145222E1,7.065913E0,7.3405205E1,1.5229289E1,1.4392138E1,3.208055E1,8.542724E0,1.3602498E1,3.379881E0,3.686032E0,2.6199706E0,7.078523E1,3.0485322E0,1.2180757E1,1.278287E1,1.6092674E0,1.6097063E1,1.5983487E1,3.969672E0,4.573052E0,8.514704E0,5.087795E0,1.0217506E0,2.3581302E0,2.5851479E0,1.1008842E0,1.2104061E0,1.4095645E0,9.806857E0,6.0978374E1,1.0259944E0,2.022538E0,6.6805444E0,5.5002127E0,8.435518E0,4.3473516E0,2.5915473E0,1.3505515E1,6.547288E0,9.436198E0,2.3989732E0,1.5706987E0,3.2984343E0,1.2746176E0,4.045959E0,4.4687448E0,2.8993628E0,2.188432E0],"tree_param":{"num_deleted":"0","num_feature":"6","num_nodes":"53","size_leaf_vector":"1"}},{"base_weights":[-5.4931134E-2,3.9129183E-1,-3.968182E-1,2.1400002E-1,8.9745814E-1,-5.930543E-1,4.497317E-1,3.9411107E-1,-3.6966598E-1,1.1700631E0,-1.8639073E-1,-7.0548457E-1,7.2144496E-1,5.882229E-2,1.142774E0,-2.1500213E-1,6.573495E-1,1.8457267E-2,-7.189821E-1,1.4215092E-1,7.4824506E-1,2.7326074E-1,-7.160404E-2,-3.5724518E-1,-8.5401046E-1,6.527365E-3,8.996321E-1,7.5810593E-1,-3.7331E-1,1.3789446E0,4.4722334E-2,2.9861769E-2,-4.9592394E-2,8.543379E-2,1.5154128E-2,2.9049253E-2,-6.5171406E-2,-9.325844E-3,-8.286735E-2,-4.124379E-2,1.0601542E-1,4.5961034E-2,-2.7451653E-3,-4.5440435E-2,2.4821242E-2,-8.88283E-2,3.5980355E-3,1.8284691E-2,1.0839968E-1,1.0112013E-1,1.2342796E-2,-8.443796E-2,1.9410376E-2,1.7192762E-1,4.782237E-2],"categories":[],"categories_nodes":[],"categories_segments":[],"categories_sizes":[],"default_left":[0,0,0,0,0,0,0,0,0,0,0,0,0,0,0,0,0,0,0,0,0,0,0,0,0,0,0,0,0,0,0,0,0,0,0,0,0,0,0,0,0,0,0,0,0,0,0,0,0,0,0,0,0,0,0],"id":14,"left_children":[1,3,5,7,9,11,13,15,17,19,21,23,25,27,29,31,33,35,37,-1,39,41,-1,43,45,-1,47,49,51,53,-1,-1,-1,-1,-1,-1,-1,-1,-1,-1,-1,-1,-1,-1,-1,-1,-1,-1,-1,-1,-1,-1,-1,-1,-1],"loss_changes":[2.5510439E1,6.323208E0,1.5981695E1,5.9361734E0,5.690117E0,1.1922379E1,4.909685E0,6.9681826E0,1.8442807E0,5.205021E-1,1.3117999E0,3.4007378E0,7.105379E-1,4.1508956E0,4.626789E-1,2.1105962E0,2.8572311E0,1.5333532E0,4.1230345E-1,0E0,3.221033E0,1.9071935E-1,0E0,1.4740727E0,1.5420418E0,0E0,4.7522688E-1,7.134907E-1,2.4575548E0,5.343323E-1,0E0,0E0,0E0,0E0,0E0,0E0,0E0,0E0,0E0,0E0,0E0,0E0,0E0,0E0,0E0,0E0,0E0,0E0,0E0,0E0,0E0,0E0,0E0,0E0,0E0],"parents":[2147483647,0,0,1,1,2,2,3,3,4,4,5,5,6,6,7,7,8,8,9,9,10,10,11,11,12,12,13,13,14,14,15,15,16,16,17,17,18,18,20,20,21,21,23,23,24,24,26,26,27,27,28,28,29,29],"right_children":[2,4,6,8,10,12,14,16,18,20,22,24,26,28,30,32,34,36,38,-1,40,42,-1,44,46,-1,48,50,52,54,-1,-1,-1,-1,-1,-1,-1,-1,-1,-1,-1,-1,-1,-1,-1,-1,-1,-1,-1,-1,-1,-1,-1,-1,-1],"split_conditions":[1.382E3,1.87E2,2.07E2,3.115E2,2E0,2.456E3,3.109E2,3.098E2,9.4E1,3.106E2,1.354E3,1.447E3,2.2E1,1.46E3,3.119E2,3.083E2,3.11E2,3.123E2,1.28E3,1.4215092E-1,3.108E2,1.303E3,-7.160404E-2,1.438E3,2.05E2,6.527365E-3,3.086E2,3.1E2,2.17E2,2.17E2,4.4722334E-2,2.9861769E-2,-4.9592394E-2,8.543379E-2,1.5154128E-2,2.9049253E-2,-6.5171406E-2,-9.325844E-3,-8.286735E-2,-4.124379E-2,1.0601542E-1,4.5961034E-2,-2.7451653E-3,-4.5440435E-2,2.4821242E-2,-8.88283E-2,3.5980355E-3,1.8284691E-2,1.0839968E-1,1.0112013E-1,1.2342796E-2,-8.443796E-2,1.9410376E-2,1.7192762E-1,4.782237E-2],"split_indices":[3,5,5,2,0,3,2,2,5,2,3,3,5,3,2,2,2,2,3,0,2,3,0,3,5,0,2,2,5,5,0,0,0,0,0,0,0,0,0,0,0,0,0,0,0,0,0,0,0,0,0,0,0,0,0],"split_type":[0,0,0,0,0,0,0,0,0,0,0,0,0,0,0,0,0,0,0,0,0,0,0,0,0,0,0,0,0,0,0,0,0,0,0,0,0,0,0,0,0,0,0,0,0,0,0,0,0,0,0,0,0,0,0],"sum_hessian":[1.6520033E2,7.160225E1,9.3598076E1,5.4082043E1,1.7520205E1,7.622747E1,1.737061E1,4.1576797E1,1.2505245E1,1.3935631E1,3.5845742E0,7.064818E1,5.579295E0,1.1799816E1,5.5707927E0,1.2601397E1,2.89754E1,6.372242E0,6.1330028E0,7.246205E0,6.689426E0,2.1782625E0,1.4063118E0,2.2140945E1,4.850723E1,1.4833187E0,4.0959764E0,4.218703E0,7.581113E0,3.4252455E0,2.145547E0,4.433136E0,8.168261E0,2.0357906E1,8.617495E0,4.9354067E0,1.4368354E0,1.1907393E0,4.9422636E0,1.3486181E0,5.3408074E0,1.0186231E0,1.1596394E0,1.929424E1,2.8467057E0,4.6710384E1,1.7968436E0,1.2454808E0,2.8504958E0,2.5918717E0,1.6268312E0,3.8755188E0,3.7055943E0,1.8263817E0,1.5988638E0],"tree_param":{"num_deleted":"0","num_feature":"6","num_nodes":"55","size_leaf_vector":"1"}},{"base_weights":[4.9251195E-2,4.199462E-1,-2.581688E-1,8.169223E-2,9.1524714E-1,1.0435257E0,-3.9866802E-1,-1.919163E-1,7.3142266E-1,1.7055918E0,3.6667183E-1,1.2254355E0,8.223913E-3,-4.7371456E-1,1.5102582E-1,-3.3224767E-1,5.109607E-1,2.7376E-1,1.2274061E0,5.3883314E-1,2.0109497E-1,-5.876389E-1,1.1860799E0,5.1318944E-1,1.5491712E-1,-5.805468E-1,-2.3596649E-1,-4.4675454E-2,8.186312E-2,2.0297594E-1,-4.7063272E-2,9.59802E-2,-1.5036354E-2,3.350553E-2,1.4911173E-1,1.33667E-1,-5.7858504E-2,-8.145815E-2,5.14426E-2,2.1229164E-1,-2.5585694E-2,8.3440945E-2,4.0683644E-3,-6.743584E-3,-6.1150115E-2,-5.5800565E-2,-8.563809E-3],"categories":[],"categories_nodes":[],"categories_segments":[],"categories_sizes":[],"default_left":[0,0,0,0,0,0,0,0,0,0,0,0,0,0,0,0,0,0,0,0,0,0,0,0,0,0,0,0,0,0,0,0,0,0,0,0,0,0,0,0,0,0,0,0,0,0,0],"id":15,"left_children":[1,3,5,7,9,11,13,15,17,19,21,23,-1,25,-1,27,29,31,33,35,-1,37,39,41,-1,43,45,-1,-1,-1,-1,-1,-1,-1,-1,-1,-1,-1,-1,-1,-1,-1,-1,-1,-1,-1,-1],"loss_changes":[1.8676218E1,1.2364223E1,1.6818794E1,8.178363E0,1.2394867E1,1.4754562E0,1.2415922E1,3.3861732E0,2.7525115E0,3.2025414E0,1.5554874E1,9.360857E-1,0E0,1.8783283E0,0E0,4.0277247E0,9.633453E0,2.5778372E0,9.6944046E-1,4.215904E0,0E0,2.781647E0,1.4800343E1,5.4909945E-1,0E0,8.1741714E-1,1.2247062E0,0E0,0E0,0E0,0E0,0E0,0E0,0E0,0E0,0E0,0E0,0E0,0E0,0E0,0E0,0E0,0E0,0E0,0E0,0E0,0E0],"parents":[2147483647,0,0,1,1,2,2,3,3,4,4,5,5,6,6,7,7,8,8,9,9,10,10,11,11,13,13,15,15,16,16,17,17,18,18,19,19,21,21,22,22,23,23,25,25,26,26],"right_children":[2,4,6,8,10,12,14,16,18,20,22,24,-1,26,-1,28,30,32,34,36,-1,38,40,42,-1,44,46,-1,-1,-1,-1,-1,-1,-1,-1,-1,-1,-1,-1,-1,-1,-1,-1,-1,-1,-1,-1],"split_conditions":[1.382E3,3.02E2,1.69E1,6.25E1,3.11E2,3.117E2,5.94E1,3.016E2,1.309E3,3.021E2,3.03E2,3.095E2,8.223913E-3,4.52E1,1.5102582E-1,3.118E2,3.105E2,2.994E2,6.4E1,3.106E2,2.0109497E-1,6.03E1,3.123E2,3.086E2,1.5491712E-1,3.079E2,3.095E2,-4.4675454E-2,8.186312E-2,2.0297594E-1,-4.7063272E-2,9.59802E-2,-1.5036354E-2,3.350553E-2,1.4911173E-1,1.33667E-1,-5.7858504E-2,-8.145815E-2,5.14426E-2,2.1229164E-1,-2.5585694E-2,8.3440945E-2,4.0683644E-3,-6.743584E-3,-6.1150115E-2,-5.5800565E-2,-8.563809E-3],"split_indices":[3,1,4,4,2,2,4,1,3,1,1,2,0,4,0,2,2,1,4,2,0,4,2,2,0,2,2,0,0,0,0,0,0,0,0,0,0,0,0,0,0,0,0,0,0,0,0],"split_type":[0,0,0,0,0,0,0,0,0,0,0,0,0,0,0,0,0,0,0,0,0,0,0,0,0,0,0,0,0,0,0,0,0,0,0,0,0,0,0,0,0,0,0,0,0,0,0],"sum_hessian":[1.6193399E2,7.324601E1,8.868798E1,4.4215218E1,2.9030794E1,8.013882E0,8.06741E1,3.1608963E1,1.2606256E1,1.1030204E1,1.800059E1,6.5076194E0,1.5062621E0,7.8345894E1,2.3282073E0,2.6787973E1,4.8209906E0,7.363567E0,5.242688E0,2.8614244E0,8.168779E0,8.446433E0,9.554156E0,2.841434E0,3.6661854E0,5.3061035E1,2.5284857E1,2.4920334E1,1.8676385E0,1.4734036E0,3.3475869E0,2.3306286E0,5.0329385E0,1.7138544E0,3.5288339E0,1.5549657E0,1.3064588E0,7.2204266E0,1.2260066E0,5.5051527E0,4.049004E0,1.2355533E0,1.6058807E0,3.199731E0,4.9861305E1,7.1837173E0,1.810114E1],"tree_param":{"num_deleted":"0","num_feature":"6","num_nodes":"47","size_leaf_vector":"1"}},{"base_weights":[-2.7778054E-2,-2.472854E-1,7.869125E-1,2.1164891E-1,-6.565551E-1,1.427662E0,6.1949176E-1,-2.94571E-1,5.8948076E-1,-7.943101E-1,4.1344425E-1,1.6617368E-1,2.7757108E-2,-6.337917E-2,8.23744E-1,3.137868E-1,-4.5695674E-1,1.9659133E0,1.0859597E-1,-5.2533776E-1,-9.544542E-2,7.5784403E-1,5.1408067E-2,4.080709E-1,-7.1866915E-2,1.9776563E-1,1.0872343E0,3.1385184E-4,8.204673E-2,-5.9008654E-2,5.522367E-2,1.1821616E-2,2.248493E-1,-3.2813083E-2,7.833546E-2,-6.0845375E-2,1.828093E-2,1.1636033E-2,9.548103E-2,3.5737347E-2,-5.007084E-2,-3.5290245E-2,9.110626E-2,4.7129422E-2,-2.4170876E-2,1.2469659E-1,3.4706566E-2],"categories":[],"categories_nodes":[],"categories_segments":[],"categories_sizes":[],"default_left":[0,0,0,0,0,0,0,0,0,0,0,0,0,0,0,0,0,0,0,0,0,0,0,0,0,0,0,0,0,0,0,0,0,0,0,0,0,0,0,0,0,0,0,0,0,0,0],"id":16,"left_children":[1,3,5,7,9,11,13,15,17,19,21,-1,-1,23,25,27,29,31,33,35,-1,37,39,41,-1,43,45,-1,-1,-1,-1,-1,-1,-1,-1,-1,-1,-1,-1,-1,-1,-1,-1,-1,-1,-1,-1],"loss_changes":[2.8611311E1,2.3793434E1,2.7592812E0,1.1673065E1,1.0176676E1,1.2266483E0,4.054695E0,2.7476938E0,2.2794506E1,2.0630531E0,9.9323833E-1,0E0,0E0,2.6212912E0,3.440135E0,9.649747E-1,3.1762218E0,4.40271E0,8.160149E0,1.5498881E0,0E0,4.157524E-1,1.0419365E0,2.2431371E0,0E0,1.0499884E0,1.3848114E0,0E0,0E0,0E0,0E0,0E0,0E0,0E0,0E0,0E0,0E0,0E0,0E0,0E0,0E0,0E0,0E0,0E0,0E0,0E0,0E0],"parents":[2147483647,0,0,1,1,2,2,3,3,4,4,5,5,6,6,7,7,8,8,9,9,10,10,13,13,14,14,15,15,16,16,17,17,18,18,19,19,21,21,22,22,23,23,25,25,26,26],"right_children":[2,4,6,8,10,12,14,16,18,20,22,-1,-1,24,26,28,30,32,34,36,-1,38,40,42,-1,44,46,-1,-1,-1,-1,-1,-1,-1,-1,-1,-1,-1,-1,-1,-1,-1,-1,-1,-1,-1,-1],"split_conditions":[2E2,1.378E3,3.086E2,3.011E2,2.113E3,1.55E3,3.097E2,3.083E2,3.106E2,1.455E3,3.002E2,1.6617368E-1,2.7757108E-2,2.997E2,2.08E2,2.982E2,1.87E2,3.016E2,3.026E2,1.89E2,-9.544542E-2,2.982E2,1.01E2,2.985E2,-7.1866915E-2,3.02E2,3.028E2,3.1385184E-4,8.204673E-2,-5.9008654E-2,5.522367E-2,1.1821616E-2,2.248493E-1,-3.2813083E-2,7.833546E-2,-6.0845375E-2,1.828093E-2,1.1636033E-2,9.548103E-2,3.5737347E-2,-5.007084E-2,-3.5290245E-2,9.110626E-2,4.7129422E-2,-2.4170876E-2,1.2469659E-1,3.4706566E-2],"split_indices":[5,3,2,1,3,3,2,2,2,3,1,0,0,1,5,1,5,1,1,5,0,1,5,1,0,1,1,0,0,0,0,0,0,0,0,0,0,0,0,0,0,0,0,0,0,0,0],"split_type":[0,0,0,0,0,0,0,0,0,0,0,0,0,0,0,0,0,0,0,0,0,0,0,0,0,0,0,0,0,0,0,0,0,0,0,0,0,0,0,0,0,0,0,0,0,0,0],"sum_hessian":[1.5790305E2,1.2493694E2,3.2966103E1,5.9122658E1,6.5814285E1,5.2698884E0,2.7696213E1,2.5362411E1,3.3760246E1,5.8535854E1,7.27843E0,4.0090613E0,1.260827E0,6.5356045E0,2.1160608E1,5.1470985E0,2.0215313E1,7.941433E0,2.5818815E1,2.3442713E1,3.5093143E1,3.1697807E0,4.1086493E0,4.0203905E0,2.515214E0,6.7870536E0,1.4373555E1,3.8145647E0,1.3325338E0,1.822625E1,1.9890629E0,1.241568E0,6.699865E0,1.5985901E1,9.832914E0,2.1106232E1,2.3364809E0,1.1183331E0,2.0514476E0,2.8705838E0,1.2380655E0,1.718649E0,2.3017416E0,4.1387153E0,2.6483383E0,1.12590885E1,3.1144662E0],"tree_param":{"num_deleted":"0","num_feature":"6","num_nodes":"47","size_leaf_vector":"1"}},{"base_weights":[7.356711E-2,-1.21909335E-1,7.895548E-1,-3.6365217E-1,5.727772E-1,5.867958E-1,1.2411406E-1,1.5980867E-1,-6.668087E-1,2.581926E-1,1.3708719E0,3.685525E-1,1.1927879E0,-8.411633E-2,3.390802E-1,6.0483646E-1,-8.7372534E-2,-1.33451065E-2,1.0686865E0,7.091388E-1,1.7988567E-1,1.2797534E0,1.4436918E-1,1.526728E0,7.5116134E-3,1.12326756E-1,2.1292965E-3,-2.7284303E-3,6.9940135E-2,-2.524778E-2,1.2400677E-1,1.9503217E-2,1.2470819E-1,-6.976927E-2,1.5582405E-1,1.7431329E-1,2.1242391E-2,-1.3989742E-2,5.6269776E-2,7.1455486E-2,2.1503548E-1],"categories":[],"categories_nodes":[],"categories_segments":[],"categories_sizes":[],"default_left":[0,0,0,0,0,0,0,0,0,0,0,0,0,0,0,0,0,0,0,0,0,0,0,0,0,0,0,0,0,0,0,0,0,0,0,0,0,0,0,0,0],"id":17,"left_children":[1,3,5,7,9,11,-1,13,15,17,19,21,23,-1,25,27,-1,29,31,33,-1,35,37,39,-1,-1,-1,-1,-1,-1,-1,-1,-1,-1,-1,-1,-1,-1,-1,-1,-1],"loss_changes":[2.1908308E1,2.091291E1,2.344307E0,1.4717715E1,7.73444E0,2.8741121E0,0E0,6.489367E0,1.5921059E1,5.3709207E0,1.238224E0,3.873916E0,2.1945972E0,0E0,7.4609632E0,5.4377556E-1,0E0,6.0737066E0,7.106805E-1,7.2234106E0,0E0,1.5071001E0,2.1089451E0,8.5009384E-1,0E0,0E0,0E0,0E0,0E0,0E0,0E0,0E0,0E0,0E0,0E0,0E0,0E0,0E0,0E0,0E0,0E0],"parents":[2147483647,0,0,1,1,2,2,3,3,4,4,5,5,7,7,8,8,9,9,10,10,11,11,12,12,14,14,15,15,17,17,18,18,19,19,21,21,22,22,23,23],"right_children":[2,4,6,8,10,12,-1,14,16,18,20,22,24,-1,26,28,-1,30,32,34,-1,36,38,40,-1,-1,-1,-1,-1,-1,-1,-1,-1,-1,-1,-1,-1,-1,-1,-1,-1],"split_conditions":[2.03E2,5.68E1,5.13E1,1.382E3,1.356E3,2.25E2,1.2411406E-1,3.099E2,1.58E1,6.73E1,6.15E1,3.086E2,2.35E2,-8.411633E-2,3.105E2,1.6E1,-8.7372534E-2,1.88E2,1.248E3,9.3E1,1.7988567E-1,4.06E1,3.109E2,1.573E3,7.5116134E-3,1.12326756E-1,2.1292965E-3,-2.7284303E-3,6.9940135E-2,-2.524778E-2,1.2400677E-1,1.9503217E-2,1.2470819E-1,-6.976927E-2,1.5582405E-1,1.7431329E-1,2.1242391E-2,-1.3989742E-2,5.6269776E-2,7.1455486E-2,2.1503548E-1],"split_indices":[5,4,4,3,3,5,0,2,4,4,4,2,5,0,2,5,0,5,3,5,0,4,2,3,0,0,0,0,0,0,0,0,0,0,0,0,0,0,0,0,0],"split_type":[0,0,0,0,0,0,0,0,0,0,0,0,0,0,0,0,0,0,0,0,0,0,0,0,0,0,0,0,0,0,0,0,0,0,0,0,0,0,0,0,0],"sum_hessian":[1.5484633E2,1.22289116E2,3.2557217E1,9.107322E1,3.1215899E1,2.4055758E1,8.501458E0,3.3573925E1,5.7499294E1,2.3339634E1,7.876263E0,1.886857E1,5.1871877E0,4.5388584E0,2.9035069E1,7.777586E0,4.972171E1,1.8219229E1,5.1204066E0,4.136892E0,3.7393715E0,2.7959244E0,1.6072645E1,3.7120914E0,1.475096E0,7.642185E0,2.1392883E1,1.1046965E0,6.6728897E0,1.5970802E1,2.248426E0,1.2232164E0,3.8971903E0,1.624184E0,2.5127077E0,1.508039E0,1.2878854E0,9.966021E0,6.1066246E0,2.5443246E0,1.1677669E0],"tree_param":{"num_deleted":"0","num_feature":"6","num_nodes":"41","size_leaf_vector":"1"}},{"base_weights":[2.5674246E-2,-1.4627817E-1,5.936533E-1,-3.9376304E-1,2.1484783E-1,1.1160733E0,4.2045394E-1,6.879597E-1,-4.8408887E-1,7.1173656E-1,-1.2246461E-1,1.682196E-2,1.2433578E-1,6.231518E-1,-3.2656738E-1,-5.222211E-2,1.0619948E0,-3.656648E-1,-8.145971E-1,-2.2725312E-1,9.728054E-1,-6.200164E-1,4.027293E-1,2.2734684E-1,9.873885E-1,-7.1077543E-1,2.0879427E-1,1.3049576E-1,3.7246E-2,-4.1942526E-2,1.2123508E-2,-8.991079E-2,-2.977254E-2,-6.418668E-2,5.3881522E-2,4.396438E-2,1.4082563E-1,8.37894E-4,-7.30181E-2,1.280954E-1,-4.5546852E-2,4.1777033E-2,-5.968488E-2,2.693992E-2,1.06929E-1,-8.063046E-2,-2.0890705E-2,3.922153E-2,-7.0308754E-3],"categories":[],"categories_nodes":[],"categories_segments":[],"categories_sizes":[],"default_left":[0,0,0,0,0,0,0,0,0,0,0,0,0,0,0,0,0,0,0,0,0,0,0,0,0,0,0,0,0,0,0,0,0,0,0,0,0,0,0,0,0,0,0,0,0,0,0,0,0],"id":18,"left_children":[1,3,5,7,9,11,13,15,17,19,21,-1,-1,23,25,-1,27,29,31,33,35,37,39,41,43,45,47,-1,-1,-1,-1,-1,-1,-1,-1,-1,-1,-1,-1,-1,-1,-1,-1,-1,-1,-1,-1,-1,-1],"loss_changes":[1.4720618E1,1.0435617E1,2.6992702E0,7.082163E0,8.08922E0,7.698412E-1,4.42863E0,3.1511755E0,2.2203455E0,4.9895267E0,7.9038067E0,0E0,0E0,2.9892693E0,1.5083383E0,0E0,3.0330658E-1,1.338212E0,4.3808556E-1,1.9474033E0,2.9584408E0,1.0746484E0,1.1780242E1,2.129895E0,3.7699795E-1,2.6983738E-2,2.085619E-1,0E0,0E0,0E0,0E0,0E0,0E0,0E0,0E0,0E0,0E0,0E0,0E0,0E0,0E0,0E0,0E0,0E0,0E0,0E0,0E0,0E0,0E0],"parents":[2147483647,0,0,1,1,2,2,3,3,4,4,5,5,6,6,7,7,8,8,9,9,10,10,13,13,14,14,16,16,17,17,18,18,19,19,20,20,21,21,22,22,23,23,24,24,25,25,26,26],"right_children":[2,4,6,8,10,12,14,16,18,20,22,-1,-1,24,26,-1,28,30,32,34,36,38,40,42,44,46,48,-1,-1,-1,-1,-1,-1,-1,-1,-1,-1,-1,-1,-1,-1,-1,-1,-1,-1,-1,-1,-1,-1],"split_conditions":[5.68E1,3.016E2,3.088E2,1.69E1,3.11E2,3.078E2,2E0,1E0,3.006E2,4.08E1,3.03E2,1.682196E-2,1.2433578E-1,3.108E2,6.25E1,-5.222211E-2,2.987E2,3.004E2,3.116E2,2E0,3.021E2,3.45E1,3.121E2,3.106E2,3.005E2,3.112E2,3.107E2,1.3049576E-1,3.7246E-2,-4.1942526E-2,1.2123508E-2,-8.991079E-2,-2.977254E-2,-6.418668E-2,5.3881522E-2,4.396438E-2,1.4082563E-1,8.37894E-4,-7.30181E-2,1.280954E-1,-4.5546852E-2,4.1777033E-2,-5.968488E-2,2.693992E-2,1.06929E-1,-8.063046E-2,-2.0890705E-2,3.922153E-2,-7.0308754E-3],"split_indices":[4,1,2,4,2,2,0,0,1,4,1,0,0,2,4,0,1,1,2,0,1,4,2,2,1,2,2,0,0,0,0,0,0,0,0,0,0,0,0,0,0,0,0,0,0,0,0,0,0],"split_type":[0,0,0,0,0,0,0,0,0,0,0,0,0,0,0,0,0,0,0,0,0,0,0,0,0,0,0,0,0,0,0,0,0,0,0,0,0,0,0,0,0,0,0,0,0,0,0,0,0],"sum_hessian":[1.488359E2,1.14817894E2,3.4018005E1,6.8074844E1,4.674305E1,7.1145563E0,2.690345E1,4.736394E0,6.333845E1,1.845189E1,2.8291159E1,1.1171373E0,5.9974194E0,2.1291893E1,5.6115556E0,1.024729E0,3.711665E0,4.8181103E1,1.5157351E1,4.0423274E0,1.4409563E1,1.4435184E1,1.3855975E1,1.0982126E1,1.0309768E1,3.0762188E0,2.5353365E0,2.0846162E0,1.6270487E0,4.3515026E1,4.666077E0,1.239173E1,2.7656205E0,2.7280002E0,1.3143271E0,7.3814363E0,7.0281267E0,2.2909868E0,1.21441965E1,6.6046205E0,7.251355E0,9.321572E0,1.6605536E0,1.4948108E0,8.814957E0,2.0747004E0,1.0015185E0,1.2853554E0,1.249981E0],"tree_param":{"num_deleted":"0","num_feature":"6","num_nodes":"49","size_leaf_vector":"1"}},{"base_weights":[4.4584922E-2,-1.6996358E-1,8.05794E-1,-4.0268597E-1,4.3482792E-1,6.003476E-1,1.301634E0,5.6347334E-1,-4.992102E-1,2.5793642E-1,1.1943629E0,3.974785E-1,1.2370323E0,1.4067556E-1,5.058946E-2,-4.2605097E-3,6.686188E-1,-8.741888E-2,-2.2031485E-1,1.4334654E-2,1.07529275E-1,4.3444985E-1,1.5892234E-1,1.1098484E0,2.1192454E-1,6.5303564E-1,1.648367E-1,8.0557756E-2,1.4645548E-3,-9.113893E-2,-4.3982654E-3,-2.3815986E-2,2.399963E-2,7.234053E-2,-1.0251331E-2,1.6848518E-1,-1.8973112E-2,-4.852123E-2,3.6389127E-2,1.3201146E-1,-5.6917377E-2],"categories":[],"categories_nodes":[],"categories_segments":[],"categories_sizes":[],"default_left":[0,0,0,0,0,0,0,0,0,0,0,0,0,0,0,0,0,0,0,0,0,0,0,0,0,0,0,0,0,0,0,0,0,0,0,0,0,0,0,0,0],"id":19,"left_children":[1,3,5,7,9,11,13,15,17,19,21,23,25,-1,-1,-1,27,-1,29,31,-1,33,-1,35,37,39,-1,-1,-1,-1,-1,-1,-1,-1,-1,-1,-1,-1,-1,-1,-1],"loss_changes":[2.4752438E1,1.6840826E1,2.6123104E0,8.303763E0,4.177131E0,2.7905064E0,3.3125877E-2,5.563605E-1,8.042145E0,5.6298323E0,1.1191168E0,2.5068383E0,2.8484917E-1,0E0,0E0,0E0,6.258092E-1,0E0,5.625473E0,1.3594605E0,0E0,6.076438E-1,0E0,3.3466377E0,2.0510461E0,4.0110035E0,0E0,0E0,0E0,0E0,0E0,0E0,0E0,0E0,0E0,0E0,0E0,0E0,0E0,0E0,0E0],"parents":[2147483647,0,0,1,1,2,2,3,3,4,4,5,5,6,6,7,7,8,8,9,9,10,10,11,11,12,12,16,16,18,18,19,19,21,21,23,23,24,24,25,25],"right_children":[2,4,6,8,10,12,14,16,18,20,22,24,26,-1,-1,-1,28,-1,30,32,-1,34,-1,36,38,40,-1,-1,-1,-1,-1,-1,-1,-1,-1,-1,-1,-1,-1,-1,-1],"split_conditions":[2.03E2,5.68E1,5.21E1,1.58E1,1.8E2,2.25E2,2E0,1.6E1,4.51E1,6.73E1,3.106E2,3.086E2,4.49E1,1.4067556E-1,5.058946E-2,-4.2605097E-3,1.26E2,-8.741888E-2,3.099E2,6.15E1,1.07529275E-1,1.98E2,1.5892234E-1,4.45E1,3.095E2,3.62E1,1.648367E-1,8.0557756E-2,1.4645548E-3,-9.113893E-2,-4.3982654E-3,-2.3815986E-2,2.399963E-2,7.234053E-2,-1.0251331E-2,1.6848518E-1,-1.8973112E-2,-4.852123E-2,3.6389127E-2,1.3201146E-1,-5.6917377E-2],"split_indices":[5,4,4,4,5,5,0,5,4,4,2,2,4,0,0,0,5,0,2,4,0,5,0,4,2,4,0,0,0,0,0,0,0,0,0,0,0,0,0,0,0],"split_type":[0,0,0,0,0,0,0,0,0,0,0,0,0,0,0,0,0,0,0,0,0,0,0,0,0,0,0,0,0,0,0,0,0,0,0,0,0,0,0,0,0],"sum_hessian":[1.4972276E2,1.1740782E2,3.231494E1,8.502469E1,3.2383133E1,2.4411177E1,7.9037647E0,7.283443E0,7.774125E1,2.7352486E1,5.0306463E0,1.9744282E1,4.6668954E0,6.303215E0,1.6005493E0,1.1646986E0,6.1187444E0,3.224839E1,4.549286E1,2.1856112E1,5.4963746E0,2.4383254E0,2.5923207E0,3.050743E0,1.6693539E1,2.9980233E0,1.668872E0,4.867537E0,1.2512076E0,8.400671E0,3.7092186E1,1.0288664E1,1.1567448E1,1.3595151E0,1.0788103E0,1.909444E0,1.1412992E0,2.5952272E0,1.4098311E1,1.8876457E0,1.1103776E0],"tree_param":{"num_deleted":"0","num_feature":"6","num_nodes":"41","size_leaf_vector":"1"}},{"base_weights":[6.0132537E-2,2.1517457E-1,-2.3918615E-1,-8.235756E-3,4.671462E-1,-4.03488E-1,6.1320716E-1,2.0606215E-1,-2.6121908E-1,1.3627454E0,1.9546011E-1,-2.2632949E-1,-5.996243E-1,-5.2884188E-2,8.3811307E-1,9.182874E-2,8.358231E-1,-6.06703E-1,5.7038736E-2,1.7807798E-1,1.3733992E-1,-2.0420921E-1,5.6863457E-1,-4.3595845E-1,1.7721474E-1,-2.5059396E-1,-7.3922855E-1,1.5765598E-2,9.763016E-1,2.018868E-2,-7.595666E-2,2.0056782E-2,1.0793346E-1,-2.4644462E-2,-7.074443E-2,7.372104E-2,-1.5795887E-2,-1.9962532E-2,3.5518777E-2,2.5825558E-2,-6.0909044E-2,1.2263638E-1,-1.1597891E-2,-1.975402E-2,-8.4818326E-2,-4.427278E-2,1.3681808E-1,-5.3342707E-2,3.904292E-2,-1.1863361E-2,-7.89541E-2,5.3240817E-2,1.2165465E-1],"categories":[],"categories_nodes":[],"categories_segments":[],"categories_sizes":[],"default_left":[0,0,0,0,0,0,0,0,0,0,0,0,0,0,0,0,0,0,0,0,0,0,0,0,0,0,0,0,0,0,0,0,0,0,0,0,0,0,0,0,0,0,0,0,0,0,0,0,0,0,0,0,0],"id":20,"left_children":[1,3,5,7,9,11,13,15,17,19,21,23,25,-1,27,29,31,33,35,-1,37,39,41,43,45,47,49,-1,51,-1,-1,-1,-1,-1,-1,-1,-1,-1,-1,-1,-1,-1,-1,-1,-1,-1,-1,-1,-1,-1,-1,-1,-1],"loss_changes":[6.877752E0,5.4884095E0,7.3433743E0,2.9067657E0,1.0878973E1,1.3612814E0,2.648291E0,2.013044E0,2.7366538E0,5.130924E0,5.531811E0,2.1280546E0,7.814703E-1,0E0,5.568919E-1,2.562677E0,4.5439076E-1,2.5642204E-1,2.1206574E0,0E0,3.4638634E-1,3.5780442E0,8.716782E0,1.42891E0,7.249937E0,1.5102233E0,3.3280706E-1,0E0,1.8310547E-3,0E0,0E0,0E0,0E0,0E0,0E0,0E0,0E0,0E0,0E0,0E0,0E0,0E0,0E0,0E0,0E0,0E0,0E0,0E0,0E0,0E0,0E0,0E0,0E0],"parents":[2147483647,0,0,1,1,2,2,3,3,4,4,5,5,6,6,7,7,8,8,9,9,10,10,11,11,12,12,14,14,15,15,16,16,17,17,18,18,20,20,21,21,22,22,23,23,24,24,25,25,26,26,28,28],"right_children":[2,4,6,8,10,12,14,16,18,20,22,24,26,-1,28,30,32,34,36,-1,38,40,42,44,46,48,50,-1,52,-1,-1,-1,-1,-1,-1,-1,-1,-1,-1,-1,-1,-1,-1,-1,-1,-1,-1,-1,-1,-1,-1,-1,-1],"split_conditions":[1.456E3,3.016E2,2.262E3,3.1E2,3.106E2,3.006E2,1E0,3.098E2,3.107E2,1.377E3,3.026E2,2.992E2,1.51E3,-5.2884188E-2,2.456E3,3.096E2,1.372E3,2.993E2,1.288E3,1.7807798E-1,3.02E2,3.11E2,3.121E2,2.985E2,1.662E3,1.493E3,1E0,1.5765598E-2,3.106E2,2.018868E-2,-7.595666E-2,2.0056782E-2,1.0793346E-1,-2.4644462E-2,-7.074443E-2,7.372104E-2,-1.5795887E-2,-1.9962532E-2,3.5518777E-2,2.5825558E-2,-6.0909044E-2,1.2263638E-1,-1.1597891E-2,-1.975402E-2,-8.4818326E-2,-4.427278E-2,1.3681808E-1,-5.3342707E-2,3.904292E-2,-1.1863361E-2,-7.89541E-2,5.3240817E-2,1.2165465E-1],"split_indices":[3,1,3,2,2,1,0,2,2,3,1,1,3,0,3,2,3,1,3,0,1,2,2,1,3,3,0,0,2,0,0,0,0,0,0,0,0,0,0,0,0,0,0,0,0,0,0,0,0,0,0,0,0],"split_type":[0,0,0,0,0,0,0,0,0,0,0,0,0,0,0,0,0,0,0,0,0,0,0,0,0,0,0,0,0,0,0,0,0,0,0,0,0,0,0,0,0,0,0,0,0,0,0,0,0,0,0,0,0],"sum_hessian":[1.460961E2,9.642875E1,4.9667347E1,5.1623844E1,4.4804905E1,4.2082447E1,7.5849004E0,2.8049261E1,2.3574585E1,9.49366E0,3.5311245E1,2.324265E1,1.8839798E1,1.0256028E0,6.5592976E0,2.4712444E1,3.3368168E0,1.0869213E1,1.2705372E1,6.7408667E0,2.7527936E0,1.7268974E1,1.8042269E1,1.5243691E1,7.998958E0,6.1811323E0,1.2658665E1,1.4686016E0,5.090696E0,2.2559147E1,2.1532972E0,1.4299954E0,1.9068215E0,3.1283424E0,7.740871E0,2.46815E0,1.0237222E1,1.1137313E0,1.6390623E0,8.23029E0,9.038685E0,8.7982235E0,9.244045E0,1.0595044E1,4.6486464E0,5.673796E0,2.3251622E0,4.4052796E0,1.7758528E0,1.2011111E0,1.1457554E1,2.9170516E0,2.173644E0],"tree_param":{"num_deleted":"0","num_feature":"6","num_nodes":"53","size_leaf_vector":"1"}},{"base_weights":[2.0944137E-2,-1.8626796E-1,6.8070424E-1,1.8547079E-1,-5.9747744E-1,4.26424E-1,1.1143014E0,-2.5852492E-1,5.0885004E-1,-6.994772E-1,8.3111435E-1,2.3572138E-1,1.0335746E0,4.3007562E-1,1.2225316E-1,-5.6320083E-1,1.1419614E-1,8.890643E-1,3.3881938E-1,2.0598266E-1,-8.37958E-1,7.0065195E-3,1.1717888E-1,4.3200043E-1,-4.3503135E-1,-2.5014792E-2,1.499366E0,-5.03304E-3,7.29429E-2,-7.464575E-2,3.0621959E-2,1.1472966E-1,3.196938E-2,-7.068063E-2,4.2037927E-2,-1.9992224E-3,5.7009824E-2,-5.745538E-2,-9.412834E-2,8.612377E-2,-2.9354205E-2,-6.923432E-2,6.4479574E-3,5.8729626E-2,1.9693306E-1],"categories":[],"categories_nodes":[],"categories_segments":[],"categories_sizes":[],"default_left":[0,0,0,0,0,0,0,0,0,0,0,0,0,0,0,0,0,0,0,0,0,0,0,0,0,0,0,0,0,0,0,0,0,0,0,0,0,0,0,0,0,0,0,0,0],"id":21,"left_children":[1,3,5,7,9,11,13,15,17,19,21,23,25,27,-1,29,-1,31,33,35,37,-1,-1,39,41,-1,43,-1,-1,-1,-1,-1,-1,-1,-1,-1,-1,-1,-1,-1,-1,-1,-1,-1,-1],"loss_changes":[2.0084324E1,1.721278E1,3.3954544E0,8.6776905E0,8.3561535E0,2.5061083E0,3.8932896E-1,1.1628973E1,1.9469604E0,6.485079E0,9.582639E-1,2.7377844E0,3.5925899E0,5.012836E-1,0E0,3.7044153E0,0E0,1.122673E0,2.4842093E0,6.269262E-1,6.529541E-1,0E0,0E0,5.075298E0,6.7221886E-1,0E0,5.9711933E-1,0E0,0E0,0E0,0E0,0E0,0E0,0E0,0E0,0E0,0E0,0E0,0E0,0E0,0E0,0E0,0E0,0E0,0E0],"parents":[2147483647,0,0,1,1,2,2,3,3,4,4,5,5,6,6,7,7,8,8,9,9,10,10,11,11,12,12,13,13,15,15,17,17,18,18,19,19,20,20,23,23,24,24,26,26],"right_children":[2,4,6,8,10,12,14,16,18,20,22,24,26,28,-1,30,-1,32,34,36,38,-1,-1,40,42,-1,44,-1,-1,-1,-1,-1,-1,-1,-1,-1,-1,-1,-1,-1,-1,-1,-1,-1,-1],"split_conditions":[2.02E2,1.378E3,5.03E1,3.013E2,5.87E1,2.25E2,1.309E3,6.73E1,4.94E1,1.58E1,9.6E1,4.68E1,2.992E2,6.09E1,1.2225316E-1,1.87E2,1.1419614E-1,1.12E2,5.05E1,3.018E2,1.44E3,7.0065195E-3,1.1717888E-1,1.568E3,1.411E3,-2.5014792E-2,1.55E3,-5.03304E-3,7.29429E-2,-7.464575E-2,3.0621959E-2,1.1472966E-1,3.196938E-2,-7.068063E-2,4.2037927E-2,-1.9992224E-3,5.7009824E-2,-5.745538E-2,-9.412834E-2,8.612377E-2,-2.9354205E-2,-6.923432E-2,6.4479574E-3,5.8729626E-2,1.9693306E-1],"split_indices":[5,3,4,1,4,5,3,4,4,4,5,4,1,4,0,5,0,5,4,1,3,0,0,3,3,0,3,0,0,0,0,0,0,0,0,0,0,0,0,0,0,0,0,0,0],"split_type":[0,0,0,0,0,0,0,0,0,0,0,0,0,0,0,0,0,0,0,0,0,0,0,0,0,0,0,0,0,0,0,0,0,0,0,0,0,0,0,0,0,0,0,0,0],"sum_hessian":[1.4498412E2,1.108781E2,3.4106018E1,5.8522213E1,5.2355885E1,2.2748667E1,1.1357352E1,2.4746342E1,3.377587E1,4.9343212E1,3.012674E0,1.8367712E1,4.3809543E0,2.230426E0,9.126926E0,2.0815731E1,3.9306104E0,9.130298E0,2.4645575E1,6.4808135E0,4.2862396E1,1.3043932E0,1.7082809E0,1.4484989E1,3.8827236E0,1.2896469E0,3.0913074E0,1.17563E0,1.0547961E0,1.7308807E1,3.5069234E0,5.583108E0,3.5471892E0,1.2285851E0,2.3416988E1,4.5821595E0,1.8986541E0,1.39248495E1,2.8937548E1,8.98334E0,5.501649E0,2.3078463E0,1.5748774E0,1.8162105E0,1.2750969E0],"tree_param":{"num_deleted":"0","num_feature":"6","num_nodes":"45","size_leaf_vector":"1"}},{"base_weights":[5.457475E-2,-1.5480936E-1,4.8517677E-1,-4.3352148E-1,2.7432254E-1,2.3278855E-1,1.3278749E0,-6.62395E-1,6.540843E-1,-3.767443E-1,4.451726E-1,-5.391567E-1,5.7771415E-1,1.4731726E-1,4.5253385E-2,5.469772E-1,-8.250781E-1,1.0513089E-1,3.982531E-1,6.7445785E-2,-7.309659E-1,5.099562E-1,-2.6057762E-1,2.6430402E-2,-7.1613306E-1,2.5099885E-1,8.918633E-1,8.0918126E-2,-4.8789633E-3,-8.850077E-2,-2.2183342E-2,-1.6328743E-2,6.55933E-2,-1.7045468E-2,-8.297294E-2,8.048392E-2,3.326493E-2,-5.761469E-2,2.20383E-2,-5.9685607E-2,6.591498E-2,-1.2485198E-2,-7.82903E-2,-2.8232967E-2,6.0260106E-2,1.1113037E-1,-6.286488E-3],"categories":[],"categories_nodes":[],"categories_segments":[],"categories_sizes":[],"default_left":[0,0,0,0,0,0,0,0,0,0,0,0,0,0,0,0,0,0,0,0,0,0,0,0,0,0,0,0,0,0,0,0,0,0,0,0,0,0,0,0,0,0,0,0,0,0,0],"id":22,"left_children":[1,3,5,7,9,11,13,15,17,19,21,23,25,-1,-1,27,29,-1,31,-1,33,35,37,39,41,43,45,-1,-1,-1,-1,-1,-1,-1,-1,-1,-1,-1,-1,-1,-1,-1,-1,-1,-1,-1,-1],"loss_changes":[1.2776378E1,1.1546108E1,9.54494E0,1.4947994E1,4.42042E0,1.0127472E1,6.643982E-1,1.0026728E1,6.6262484E-1,3.6538758E0,1.5384836E0,1.2103224E0,2.4409294E0,0E0,0E0,1.034869E0,1.3689728E0,0E0,1.2765468E0,0E0,2.3661852E-1,1.2221994E0,6.1972654E-1,1.8924657E0,2.6157475E-1,2.817658E0,2.76085E0,0E0,0E0,0E0,0E0,0E0,0E0,0E0,0E0,0E0,0E0,0E0,0E0,0E0,0E0,0E0,0E0,0E0,0E0,0E0,0E0],"parents":[2147483647,0,0,1,1,2,2,3,3,4,4,5,5,6,6,7,7,8,8,9,9,10,10,11,11,12,12,15,15,16,16,18,18,20,20,21,21,22,22,23,23,24,24,25,25,26,26],"right_children":[2,4,6,8,10,12,14,16,18,20,22,24,26,-1,-1,28,30,-1,32,-1,34,36,38,40,42,44,46,-1,-1,-1,-1,-1,-1,-1,-1,-1,-1,-1,-1,-1,-1,-1,-1,-1,-1,-1,-1],"split_conditions":[1.87E2,3.019E2,5.62E1,6.25E1,4.44E1,2.07E2,2E0,1.58E1,3.2E1,1.38E1,3.037E2,3.76E1,4.42E1,1.4731726E-1,4.5253385E-2,3.005E2,3.016E2,1.0513089E-1,6.7E1,6.7445785E-2,3.5E1,4.94E1,5.07E1,2.03E2,1.91E2,2.14E2,2E0,8.0918126E-2,-4.8789633E-3,-8.850077E-2,-2.2183342E-2,-1.6328743E-2,6.55933E-2,-1.7045468E-2,-8.297294E-2,8.048392E-2,3.326493E-2,-5.761469E-2,2.20383E-2,-5.9685607E-2,6.591498E-2,-1.2485198E-2,-7.82903E-2,-2.8232967E-2,6.0260106E-2,1.1113037E-1,-6.286488E-3],"split_indices":[5,1,4,4,4,5,0,4,5,4,1,4,4,0,0,1,1,0,5,0,5,4,4,5,5,5,0,0,0,0,0,0,0,0,0,0,0,0,0,0,0,0,0,0,0,0,0],"split_type":[0,0,0,0,0,0,0,0,0,0,0,0,0,0,0,0,0,0,0,0,0,0,0,0,0,0,0,0,0,0,0,0,0,0,0,0,0,0,0,0,0,0,0,0,0,0,0],"sum_hessian":[1.3987285E2,9.454162E1,4.533123E1,5.730985E1,3.723177E1,3.5865692E1,9.465539E0,4.766937E1,9.640483E0,7.488782E0,2.9742987E1,1.0902572E1,2.496312E1,7.5322866E0,1.933252E0,5.3720202E0,4.2297348E1,2.5585241E0,7.081959E0,1.6596076E0,5.829174E0,2.749641E1,2.2465756E0,2.8011663E0,8.101405E0,1.3118672E1,1.1844447E1,3.4815366E0,1.8904835E0,3.8050163E1,4.2471824E0,2.3428016E0,4.739157E0,1.281602E0,4.547572E0,8.995895E0,1.8500517E1,1.2370259E0,1.0095497E0,1.4396553E0,1.3615109E0,1.1132145E0,6.9881907E0,5.2906137E0,7.8280587E0,9.497488E0,2.346959E0],"tree_param":{"num_deleted":"0","num_feature":"6","num_nodes":"47","size_leaf_vector":"1"}},{"base_weights":[2.601891E-2,-1.4543839E-1,5.5712384E-1,6.823975E-1,-2.2588535E-1,3.846553E-1,1.4673361E-1,9.040791E-1,4.1901746E-1,-4.3736842E-1,7.1840994E-2,8.7584235E-2,9.401183E-1,3.586144E-2,1.1071008E-1,-1.6164502E-2,9.170882E-2,-3.417912E-1,-6.636207E-1,3.7710884E-1,-3.5792577E-1,-5.536815E-1,4.2894956E-1,1.1233553E-2,1.1123642E0,2.1927733E-2,-2.485737E-2,-3.8458873E-2,4.0823665E-2,1.6163275E-2,-8.842735E-2,4.4683848E-2,-3.715891E-2,-4.2801987E-2,3.041329E-2,6.083803E-3,-6.804798E-2,1.2951194E-2,6.477266E-2,1.282482E-1,4.770892E-2],"categories":[],"categories_nodes":[],"categories_segments":[],"categories_sizes":[],"default_left":[0,0,0,0,0,0,0,0,0,0,0,0,0,0,0,0,0,0,0,0,0,0,0,0,0,0,0,0,0,0,0,0,0,0,0,0,0,0,0,0,0],"id":23,"left_children":[1,3,5,7,9,11,-1,13,15,17,19,21,23,-1,-1,25,-1,27,29,31,33,35,37,-1,39,-1,-1,-1,-1,-1,-1,-1,-1,-1,-1,-1,-1,-1,-1,-1,-1],"loss_changes":[1.2643492E1,7.1522045E0,4.75329E0,1.7910194E-1,6.1090403E0,4.8405595E0,0E0,8.190727E-2,1.3653996E0,9.9664974E-1,5.507031E0,4.733962E0,1.3426371E0,0E0,0E0,2.9024175E-1,0E0,1.4999509E0,3.009183E0,1.4413626E0,9.4316673E-1,6.314349E-1,8.311751E-1,0E0,2.967825E-1,0E0,0E0,0E0,0E0,0E0,0E0,0E0,0E0,0E0,0E0,0E0,0E0,0E0,0E0,0E0,0E0],"parents":[2147483647,0,0,1,1,2,2,3,3,4,4,5,5,7,7,8,8,9,9,10,10,11,11,12,12,15,15,17,17,18,18,19,19,20,20,21,21,22,22,24,24],"right_children":[2,4,6,8,10,12,-1,14,16,18,20,22,24,-1,-1,26,-1,28,30,32,34,36,38,-1,40,-1,-1,-1,-1,-1,-1,-1,-1,-1,-1,-1,-1,-1,-1,-1,-1],"split_conditions":[5.68E1,1.69E1,1.399E3,2.99E2,3.019E2,6.4E1,1.4673361E-1,2.98E2,2E0,2E0,1.385E3,3.003E2,1.248E3,3.586144E-2,1.1071008E-1,3.016E2,9.170882E-2,5.54E1,3.32E1,3.037E2,3.039E2,2.973E2,1.326E3,1.1233553E-2,2E0,2.1927733E-2,-2.485737E-2,-3.8458873E-2,4.0823665E-2,1.6163275E-2,-8.842735E-2,4.4683848E-2,-3.715891E-2,-4.2801987E-2,3.041329E-2,6.083803E-3,-6.804798E-2,1.2951194E-2,6.477266E-2,1.282482E-1,4.770892E-2],"split_indices":[4,4,3,1,1,4,0,1,0,0,3,1,3,0,0,1,0,4,4,1,1,1,3,0,0,0,0,0,0,0,0,0,0,0,0,0,0,0,0,0,0],"split_type":[0,0,0,0,0,0,0,0,0,0,0,0,0,0,0,0,0,0,0,0,0,0,0,0,0,0,0,0,0,0,0,0,0,0,0,0,0,0,0,0,0],"sum_hessian":[1.3695535E2,1.04080925E2,3.2874424E1,8.555754E0,9.552518E1,2.8833586E1,4.040837E0,3.324764E0,5.2309895E0,5.5577763E1,3.9947414E1,1.9540613E1,9.2929735E0,1.6521813E0,1.6725827E0,3.3081167E0,1.9228728E0,4.0837276E1,1.4740485E1,2.342846E1,1.6518953E1,6.572326E0,1.29682865E1,1.8852032E0,7.40777E0,1.6714053E0,1.6367115E0,3.9093773E1,1.7435036E0,3.1662006E0,1.1574285E1,2.1801195E1,1.6272649E0,1.5257137E1,1.2618166E0,1.2131369E0,5.359189E0,6.1469746E0,6.821312E0,5.0394835E0,2.3682866E0],"tree_param":{"num_deleted":"0","num_feature":"6","num_nodes":"41","size_leaf_vector":"1"}},{"base_weights":[3.5596993E-2,-1.5100735E-1,5.455568E-1,1.6788356E-1,-5.925045E-1,3.6328602E-1,1.0286015E0,6.506586E-2,9.8620725E-1,-7.0426416E-1,9.2529505E-2,1.6055973E-1,9.646562E-1,2.802301E-2,1.1870328E0,-3.4281346E-1,1.7144047E-1,1.7426264E-3,1.1958176E-1,2.786305E-1,-8.971629E-2,3.0273646E-1,-1.8663938E-1,1.2066349E0,4.02111E-3,1.316335E-1,3.2808226E-2,-6.1177164E-2,9.958562E-2,3.5892136E-3,4.6174426E-2,-1.4750789E-2,4.9421478E-2,9.2117704E-2,1.2157813E-3,-5.5285104E-2,2.6684154E-2,6.509053E-2,1.5858589E-1],"categories":[],"categories_nodes":[],"categories_segments":[],"categories_sizes":[],"default_left":[0,0,0,0,0,0,0,0,0,0,0,0,0,0,0,0,0,0,0,0,0,0,0,0,0,0,0,0,0,0,0,0,0,0,0,0,0,0,0],"id":24,"left_children":[1,3,5,7,9,11,13,15,17,19,-1,21,23,-1,25,27,29,-1,-1,31,-1,33,35,37,-1,-1,-1,-1,-1,-1,-1,-1,-1,-1,-1,-1,-1,-1,-1],"loss_changes":[1.3146814E1,1.4360432E1,2.8835669E0,4.9497876E0,7.8949537E0,3.3081923E0,8.0430984E-1,2.4021988E0,1.3155451E0,7.8984356E0,0E0,1.1644224E0,1.5088415E0,0E0,4.1275883E-1,4.7518067E0,1.6953677E0,0E0,0E0,7.5099933E-1,0E0,2.9188719E0,1.3331325E0,1.2331915E-1,0E0,0E0,0E0,0E0,0E0,0E0,0E0,0E0,0E0,0E0,0E0,0E0,0E0,0E0,0E0],"parents":[2147483647,0,0,1,1,2,2,3,3,4,4,5,5,6,6,7,7,8,8,9,9,11,11,12,12,14,14,15,15,16,16,19,19,21,21,22,22,23,23],"right_children":[2,4,6,8,10,12,14,16,18,20,-1,22,24,-1,26,28,30,-1,-1,32,-1,34,36,38,-1,-1,-1,-1,-1,-1,-1,-1,-1,-1,-1,-1,-1,-1,-1],"split_conditions":[2E2,1.391E3,5.21E1,6.73E1,6.03E1,2.25E2,1.303E3,1.309E3,1.248E3,1.58E1,9.2529505E-2,4.68E1,2.35E2,2.802301E-2,2E0,1.73E2,5.68E1,1.7426264E-3,1.1958176E-1,4.6E1,-8.971629E-2,1.456E3,2.15E2,1.573E3,4.02111E-3,1.316335E-1,3.2808226E-2,-6.1177164E-2,9.958562E-2,3.5892136E-3,4.6174426E-2,-1.4750789E-2,4.9421478E-2,9.2117704E-2,1.2157813E-3,-5.5285104E-2,2.6684154E-2,6.509053E-2,1.5858589E-1],"split_indices":[5,3,4,4,4,5,3,3,3,4,0,4,5,0,0,5,4,0,0,5,0,3,5,3,0,0,0,0,0,0,0,0,0,0,0,0,0,0,0],"split_type":[0,0,0,0,0,0,0,0,0,0,0,0,0,0,0,0,0,0,0,0,0,0,0,0,0,0,0,0,0,0,0,0,0,0,0,0,0,0,0],"sum_hessian":[1.3628807E2,1.0029284E2,3.599524E1,5.8591946E1,4.1700893E1,2.7406008E1,8.589232E0,5.3010933E1,5.58101E0,3.9340164E1,2.3607259E0,2.144405E1,5.9619575E0,1.9844056E0,6.604827E0,1.0505663E1,4.2505272E1,1.1854079E0,4.3956017E0,6.381169E0,3.2958996E1,1.5304838E1,6.139212E0,4.4832015E0,1.4787561E0,5.2778344E0,1.3269926E0,9.200208E0,1.3054552E0,2.9741867E1,1.2763405E1,2.2498133E0,4.131356E0,4.198658E0,1.1106181E1,3.275186E0,2.864026E0,2.9202168E0,1.5629846E0],"tree_param":{"num_deleted":"0","num_feature":"6","num_nodes":"39","size_leaf_vector":"1"}},{"base_weights":[7.99119E-2,-4.3423958E-2,4.2379352E-1,5.3387785E-1,-9.2004575E-2,2.5717816E-1,1.1810962E0,-8.931758E-2,8.4356564E-1,1.35536E-1,-2.705696E-1,2.914752E-3,6.851036E-1,1.441006E-1,4.58063E-1,3.8580056E-2,-5.1849145E-2,1.1776705E-1,-7.3593766E-3,4.5993853E-1,-3.908737E-1,-3.562212E-1,1.8803307E-1,-5.204593E-2,1.6975506E-1,3.9929652E-1,1.04343355E-1,-4.9938513E-3,7.530498E-2,-4.4535585E-2,5.3645153E-2,-1.6378598E-2,-9.047437E-2,4.91432E-4,-4.4081926E-2,6.0820695E-2,-7.1459286E-2,3.57635E-2,-4.142504E-2,-1.2855454E-3,8.157955E-2],"categories":[],"categories_nodes":[],"categories_segments":[],"categories_sizes":[],"default_left":[0,0,0,0,0,0,0,0,0,0,0,0,0,0,0,0,0,0,0,0,0,0,0,0,0,0,0,0,0,0,0,0,0,0,0,0,0,0,0,0,0],"id":25,"left_children":[1,3,5,7,9,11,13,15,17,19,21,23,25,-1,27,-1,-1,-1,-1,29,31,33,35,-1,37,39,-1,-1,-1,-1,-1,-1,-1,-1,-1,-1,-1,-1,-1,-1,-1],"loss_changes":[5.7292647E0,2.85401E0,4.1929317E0,1.6019115E0,3.8194666E0,3.3154018E0,4.9534988E-1,9.198452E-1,1.7351751E0,7.2842917E0,2.1291273E0,1.8460661E0,7.467303E-1,0E0,5.0091845E-1,0E0,0E0,0E0,0E0,2.0536923E0,1.7659721E0,1.3642101E0,3.8162642E0,0E0,1.9056798E0,1.3733302E0,0E0,0E0,0E0,0E0,0E0,0E0,0E0,0E0,0E0,0E0,0E0,0E0,0E0,0E0,0E0],"parents":[2147483647,0,0,1,1,2,2,3,3,4,4,5,5,6,6,7,7,8,8,9,9,10,10,11,11,12,12,14,14,19,19,20,20,21,21,22,22,24,24,25,25],"right_children":[2,4,6,8,10,12,14,16,18,20,22,24,26,-1,28,-1,-1,-1,-1,30,32,34,36,-1,38,40,-1,-1,-1,-1,-1,-1,-1,-1,-1,-1,-1,-1,-1,-1,-1],"split_conditions":[5.68E1,1.69E1,1.385E3,3.095E2,1.386E3,6.4E1,3.102E2,3.086E2,3.117E2,3.11E2,3.118E2,3.093E2,1.309E3,1.441006E-1,3.111E2,3.8580056E-2,-5.1849145E-2,1.1776705E-1,-7.3593766E-3,1.303E3,3.121E2,3.11E1,1.555E3,-5.204593E-2,2E0,3.109E2,1.04343355E-1,-4.9938513E-3,7.530498E-2,-4.4535585E-2,5.3645153E-2,-1.6378598E-2,-9.047437E-2,4.91432E-4,-4.4081926E-2,6.0820695E-2,-7.1459286E-2,3.57635E-2,-4.142504E-2,-1.2855454E-3,8.157955E-2],"split_indices":[4,4,3,2,3,4,2,2,2,2,2,2,3,0,2,0,0,0,0,3,2,4,3,0,0,2,0,0,0,0,0,0,0,0,0,0,0,0,0,0,0],"split_type":[0,0,0,0,0,0,0,0,0,0,0,0,0,0,0,0,0,0,0,0,0,0,0,0,0,0,0,0,0,0,0,0,0,0,0,0,0,0,0,0,0],"sum_hessian":[1.3364906E2,9.901152E1,3.4637543E1,6.909834E0,9.210169E1,2.9489178E1,5.148363E0,2.5300717E0,4.379762E0,4.0603153E1,5.1498535E1,1.9129614E1,1.0359564E1,3.056601E0,2.0917623E0,1.2487271E0,1.2813445E0,3.002107E0,1.3776551E0,2.5199879E1,1.54032755E1,4.3582104E1,7.916431E0,4.1117253E0,1.5017889E1,6.9391584E0,3.4204051E0,1.0736028E0,1.0181594E0,1.5881685E0,2.3611712E1,1.1597068E1,3.8062074E0,8.4504385E0,3.5131664E1,5.62443E0,2.292001E0,1.16557455E1,3.3621435E0,3.9748893E0,2.9642694E0],"tree_param":{"num_deleted":"0","num_feature":"6","num_nodes":"41","size_leaf_vector":"1"}},{"base_weights":[3.535264E-2,-1.08924806E-1,4.450478E-1,-2.980451E-1,3.4786928E-1,9.7411335E-2,9.547786E-1,-7.4411964E-1,8.3790734E-2,1.7028736E-1,2.1456827E-1,-3.7063408E-1,3.9409345E-1,1.0787805E0,1.2409519E-2,-7.51684E-3,-9.375497E-2,1.8469186E-1,-5.524758E-1,5.5335534E-1,-1.0033906E-1,-6.7129E-1,4.3974744E-4,9.4891675E-2,5.6360442E-2,4.7011918E-1,1.3422085E-1,-3.0286273E-2,6.467234E-2,2.4126416E-2,-7.193646E-2,-2.580654E-3,-7.234844E-2,6.5103374E-2,-2.3924382E-2,-5.094103E-2,2.2336876E-2,-8.158526E-2,-5.6627207E-3,5.9426483E-2,-3.408075E-2,-4.802845E-2,2.1876203E-2,-1.0952973E-3,8.207201E-2],"categories":[],"categories_nodes":[],"categories_segments":[],"categories_sizes":[],"default_left":[0,0,0,0,0,0,0,0,0,0,0,0,0,0,0,0,0,0,0,0,0,0,0,0,0,0,0,0,0,0,0,0,0,0,0,0,0,0,0,0,0,0,0,0,0],"id":26,"left_children":[1,3,5,7,9,11,13,15,17,-1,19,21,23,25,-1,27,-1,29,31,33,35,37,39,-1,41,43,-1,-1,-1,-1,-1,-1,-1,-1,-1,-1,-1,-1,-1,-1,-1,-1,-1,-1,-1],"loss_changes":[7.808211E0,8.560316E0,6.000318E0,1.1945572E1,4.894941E0,3.139546E0,1.2906122E0,4.5919647E0,2.5730295E0,0E0,3.0063539E0,9.908544E-1,2.5096672E0,1.2774878E0,0E0,1.68784E0,0E0,1.9109458E0,4.7837853E-1,1.1991992E0,2.1240664E0,3.8968015E-1,1.2103299E0,0E0,9.3876356E-1,8.749988E-1,0E0,0E0,0E0,0E0,0E0,0E0,0E0,0E0,0E0,0E0,0E0,0E0,0E0,0E0,0E0,0E0,0E0,0E0,0E0],"parents":[2147483647,0,0,1,1,2,2,3,3,4,4,5,5,6,6,7,7,8,8,10,10,11,11,12,12,13,13,15,15,17,17,18,18,19,19,20,20,21,21,22,22,24,24,25,25],"right_children":[2,4,6,8,10,12,14,16,18,-1,20,22,24,26,-1,28,-1,30,32,34,36,38,40,-1,42,44,-1,-1,-1,-1,-1,-1,-1,-1,-1,-1,-1,-1,-1,-1,-1,-1,-1,-1,-1],"split_conditions":[5.68E1,2.03E2,1.47E2,3.015E2,2.35E1,6.15E1,2E0,2.92E1,1.75E2,1.7028736E-1,3.005E2,3.017E2,2.992E2,1.8E2,1.2409519E-2,1.45E2,-9.375497E-2,3.039E2,3.02E2,2.29E2,3.017E2,1.15E2,3.021E2,9.4891675E-2,3.7E1,3.009E2,1.3422085E-1,-3.0286273E-2,6.467234E-2,2.4126416E-2,-7.193646E-2,-2.580654E-3,-7.234844E-2,6.5103374E-2,-2.3924382E-2,-5.094103E-2,2.2336876E-2,-8.158526E-2,-5.6627207E-3,5.9426483E-2,-3.408075E-2,-4.802845E-2,2.1876203E-2,-1.0952973E-3,8.207201E-2],"split_indices":[4,5,5,1,4,4,0,4,5,0,1,1,1,5,0,5,0,1,1,5,1,5,1,0,5,1,0,0,0,0,0,0,0,0,0,0,0,0,0,0,0,0,0,0,0],"split_type":[0,0,0,0,0,0,0,0,0,0,0,0,0,0,0,0,0,0,0,0,0,0,0,0,0,0,0,0,0,0,0,0,0,0,0,0,0,0,0,0,0,0,0,0,0],"sum_hessian":[1.3027667E2,9.689015E1,3.3386513E1,6.8767006E1,2.8123148E1,2.0557442E1,1.2829073E1,3.127805E1,3.7488953E1,1.4642636E0,2.6658884E1,7.878719E0,1.2678722E1,1.090286E1,1.9262134E0,6.7213345E0,2.4556717E1,3.297017E1,4.518786E0,1.2477741E1,1.4181142E1,3.9053957E0,3.9733233E0,4.112726E0,8.565996E0,4.1345134E0,6.768346E0,5.0008574E0,1.7204767E0,3.1718481E1,1.2516865E0,1.389705E0,3.1290812E0,1.1267737E1,1.2100041E0,6.011149E0,8.169993E0,2.8967836E0,1.008612E0,1.1794469E0,2.7938764E0,1.5353032E0,7.030693E0,2.151341E0,1.9831727E0],"tree_param":{"num_deleted":"0","num_feature":"6","num_nodes":"45","size_leaf_vector":"1"}},{"base_weights":[1.7684348E-2,1.4861472E-1,-2.6400188E-1,6.969845E-2,5.7584363E-1,-4.9886551E-1,5.798186E-2,2.1222296E-1,-5.9174174E-1,1.1628437E0,-2.1052808E-1,6.209414E-2,-6.2676245E-1,4.690294E-1,-1.6304754E-1,6.5748915E-2,7.8467023E-1,-7.4500877E-1,5.7924993E-2,1.5116829E-1,-2.7242646E-2,-3.3572936E-1,2.2421049E-2,-8.170379E-1,-3.943653E-1,1.1774035E-1,5.844769E-2,-3.57063E-1,6.711098E-2,2.1573963E-2,-2.6583409E-2,1.1009145E-1,-1.6024187E-2,-6.103977E-3,-9.6893504E-2,-5.938555E-2,-4.025276E-3,-3.9153434E-2,-9.12089E-2,3.3518083E-2,-6.311474E-2,-2.7392212E-2,5.5978693E-2,-2.5729036E-3,-5.187828E-2],"categories":[],"categories_nodes":[],"categories_segments":[],"categories_sizes":[],"default_left":[0,0,0,0,0,0,0,0,0,0,0,0,0,0,0,0,0,0,0,0,0,0,0,0,0,0,0,0,0,0,0,0,0,0,0,0,0,0,0,0,0,0,0,0,0],"id":27,"left_children":[1,3,5,7,9,11,13,15,17,19,21,-1,23,25,27,29,31,33,-1,-1,-1,35,-1,37,39,-1,41,43,-1,-1,-1,-1,-1,-1,-1,-1,-1,-1,-1,-1,-1,-1,-1,-1,-1],"loss_changes":[4.9773226E0,3.0631976E0,3.269055E0,7.557146E0,6.8058305E0,3.9523435E0,1.799721E0,5.4482574E0,2.9870815E0,4.5633507E0,4.5202816E-1,0E0,6.8715763E-1,1.9352776E0,2.3559563E0,2.709192E0,4.1425304E0,1.9362712E0,0E0,0E0,0E0,4.1652167E-1,0E0,1.12752914E-1,2.3205428E0,0E0,1.0555454E0,5.9009993E-1,0E0,0E0,0E0,0E0,0E0,0E0,0E0,0E0,0E0,0E0,0E0,0E0,0E0,0E0,0E0,0E0,0E0],"parents":[2147483647,0,0,1,1,2,2,3,3,4,4,5,5,6,6,7,7,8,8,9,9,10,10,12,12,13,13,14,14,15,15,16,16,17,17,21,21,23,23,24,24,26,26,27,27],"right_children":[2,4,6,8,10,12,14,16,18,20,22,-1,24,26,28,30,32,34,-1,-1,-1,36,-1,38,40,-1,42,44,-1,-1,-1,-1,-1,-1,-1,-1,-1,-1,-1,-1,-1,-1,-1,-1,-1],"split_conditions":[1.456E3,3.03E2,3.106E2,3.113E2,3.123E2,3.078E2,3.012E2,3.021E2,1.44E3,1.375E3,1.404E3,6.209414E-2,1.613E3,3.108E2,2.456E3,3.105E2,3.11E2,3.008E2,5.7924993E-2,1.5116829E-1,-2.7242646E-2,3.037E2,2.2421049E-2,2.977E2,1.688E3,1.1774035E-1,2E0,1.522E3,6.711098E-2,2.1573963E-2,-2.6583409E-2,1.1009145E-1,-1.6024187E-2,-6.103977E-3,-9.6893504E-2,-5.938555E-2,-4.025276E-3,-3.9153434E-2,-9.12089E-2,3.3518083E-2,-6.311474E-2,-2.7392212E-2,5.5978693E-2,-2.5729036E-3,-5.187828E-2],"split_indices":[3,1,2,2,2,2,1,1,3,3,3,0,3,2,3,2,2,1,0,0,0,1,0,1,3,0,0,3,0,0,0,0,0,0,0,0,0,0,0,0,0,0,0,0,0],"split_type":[0,0,0,0,0,0,0,0,0,0,0,0,0,0,0,0,0,0,0,0,0,0,0,0,0,0,0,0,0,0,0,0,0,0,0,0,0,0,0,0,0,0,0,0,0],"sum_hessian":[1.3289143E2,9.10452E1,4.184624E1,7.783156E1,1.3213639E1,2.3878944E1,1.7967295E1,6.459256E1,1.3238998E1,7.2918057E0,5.9218335E0,2.0525706E0,2.1826374E1,5.890581E0,1.20767145E1,5.232009E1,1.2272466E1,1.202842E1,1.2105782E0,5.823241E0,1.4685647E0,4.774546E0,1.1472874E0,1.061755E1,1.1208824E1,1.476147E0,4.414434E0,1.02618685E1,1.8148457E0,3.6265053E1,1.6055038E1,9.071357E0,3.2011082E0,3.2806046E0,8.747816E0,2.0093608E0,2.765185E0,2.8734648E0,7.7440853E0,2.6447017E0,8.564122E0,2.9273355E0,1.4870986E0,3.7460346E0,6.5158343E0],"tree_param":{"num_deleted":"0","num_feature":"6","num_nodes":"45","size_leaf_vector":"1"}},{"base_weights":[1.0404882E-2,-1.7705788E-1,5.335393E-1,-2.7128682E-1,6.138707E-1,3.786565E-1,1.0735719E0,6.155457E-1,-3.307285E-1,1.21543325E-1,3.280996E-1,4.4236133E-1,-6.2378973E-2,1.4891966E-2,1.2582926E-1,9.123253E-2,4.791011E-3,-7.9969823E-1,-1.5730342E-1,-3.063006E-1,6.5020704E-1,8.047962E-1,2.744035E-1,-8.544663E-2,-3.211198E-2,-4.346396E-2,2.6338518E-4,-8.295397E-2,3.750292E-2,7.928021E-2,1.2485244E-2,1.21623695E-1,-4.7722217E-2,1.9571836E-4,6.931015E-2],"categories":[],"categories_nodes":[],"categories_segments":[],"categories_sizes":[],"default_left":[0,0,0,0,0,0,0,0,0,0,0,0,0,0,0,0,0,0,0,0,0,0,0,0,0,0,0,0,0,0,0,0,0,0,0],"id":28,"left_children":[1,3,5,7,9,11,13,15,17,-1,19,21,-1,-1,-1,-1,-1,23,25,27,29,31,33,-1,-1,-1,-1,-1,-1,-1,-1,-1,-1,-1,-1],"loss_changes":[1.2498485E1,7.1622686E0,2.4052544E0,4.6615505E0,1.3717124E0,2.0429134E0,9.9928474E-1,9.100859E-1,6.373047E0,0E0,1.905831E0,1.3984637E0,0E0,0E0,0E0,0E0,0E0,2.846117E-1,2.64385E0,1.5561042E0,3.3997703E-1,4.750783E0,2.245271E0,0E0,0E0,0E0,0E0,0E0,0E0,0E0,0E0,0E0,0E0,0E0,0E0],"parents":[2147483647,0,0,1,1,2,2,3,3,4,4,5,5,6,6,7,7,8,8,10,10,11,11,17,17,18,18,19,19,20,20,21,21,22,22],"right_children":[2,4,6,8,10,12,14,16,18,-1,20,22,-1,-1,-1,-1,-1,24,26,28,30,32,34,-1,-1,-1,-1,-1,-1,-1,-1,-1,-1,-1,-1],"split_conditions":[2.02E2,6.4E1,2.25E2,1.38E1,2.5E1,2.23E2,2.992E2,8.2E1,4.44E1,1.21543325E-1,7.2E1,2.988E2,-6.2378973E-2,1.4891966E-2,1.2582926E-1,9.123253E-2,4.791011E-3,3.027E2,3.006E2,6.73E1,2E0,2E0,3.016E2,-8.544663E-2,-3.211198E-2,-4.346396E-2,2.6338518E-4,-8.295397E-2,3.750292E-2,7.928021E-2,1.2485244E-2,1.21623695E-1,-4.7722217E-2,1.9571836E-4,6.931015E-2],"split_indices":[5,4,5,4,5,5,1,5,4,0,5,1,0,0,0,0,0,1,1,4,0,0,1,0,0,0,0,0,0,0,0,0,0,0,0],"split_type":[0,0,0,0,0,0,0,0,0,0,0,0,0,0,0,0,0,0,0,0,0,0,0,0,0,0,0,0,0,0,0,0,0,0,0],"sum_hessian":[1.2548355E2,9.286674E1,3.2616814E1,8.3567726E1,9.299015E0,2.6669193E1,5.947621E0,4.6617594E0,7.890597E1,1.9470999E0,7.3519154E0,2.5600985E1,1.0682077E0,1.2910793E0,4.656542E0,2.6624827E0,1.9992764E0,2.0327065E1,5.85789E1,2.4923098E0,4.859606E0,6.9062924E0,1.8694693E1,1.7534954E1,2.7921114E0,2.0797619E1,3.778128E1,1.2866638E0,1.205646E0,3.4217677E0,1.437838E0,5.267193E0,1.6391001E0,1.1933956E1,6.7607365E0],"tree_param":{"num_deleted":"0","num_feature":"6","num_nodes":"35","size_leaf_vector":"1"}},{"base_weights":[2.4468623E-2,-1.13894284E-1,3.716727E-1,-3.1305173E-1,2.9913223E-1,8.7156826E-1,2.3859408E-1,-6.994502E-1,-1.9109945E-1,1.0677488E-1,1.0261341E0,1.2841245E0,4.3693712E-1,8.163214E-2,7.524249E-1,7.561852E-2,-9.245669E-2,1.05554156E-1,-5.17138E-1,-3.010932E-1,3.3345056E-1,1.703444E-2,1.20929375E-1,2.7953302E-2,1.6931571E-1,-3.199218E-2,9.0235166E-2,2.424573E-1,-8.700735E-2,2.1748471E-1,1.1612811E-1,-5.156204E-2,8.272274E-2,-3.979147E-2,3.2127745E-2,2.7898401E-2,-5.9157748E-2,-1.6933114E-3,-8.346617E-2,1.0080425E-1,1.5861964E-2,4.2575493E-2,-2.3695994E-2,7.313626E-2,-6.021265E-2],"categories":[],"categories_nodes":[],"categories_segments":[],"categories_sizes":[],"default_left":[0,0,0,0,0,0,0,0,0,0,0,0,0,0,0,0,0,0,0,0,0,0,0,0,0,0,0,0,0,0,0,0,0,0,0,0,0,0,0,0,0,0,0,0,0],"id":29,"left_children":[1,3,5,7,9,11,13,15,17,19,21,23,25,27,29,31,-1,33,35,37,39,-1,-1,-1,-1,-1,-1,41,-1,43,-1,-1,-1,-1,-1,-1,-1,-1,-1,-1,-1,-1,-1,-1,-1],"loss_changes":[6.2848372E0,7.7996206E0,2.270926E0,2.8677025E0,4.223933E0,7.76062E-1,2.4230552E0,2.670372E0,4.870236E0,2.4691186E0,7.920828E-1,8.86816E-1,2.1017926E0,3.9943173E0,1.2973533E0,2.3279967E0,0E0,3.0494423E0,1.5807962E0,1.4532096E0,1.8383226E0,0E0,0E0,0E0,0E0,0E0,0E0,2.0277681E0,0E0,2.2515879E0,0E0,0E0,0E0,0E0,0E0,0E0,0E0,0E0,0E0,0E0,0E0,0E0,0E0,0E0,0E0],"parents":[2147483647,0,0,1,1,2,2,3,3,4,4,5,5,6,6,7,7,8,8,9,9,10,10,11,11,12,12,13,13,14,14,15,15,17,17,18,18,19,19,20,20,27,27,29,29],"right_children":[2,4,6,8,10,12,14,16,18,20,22,24,26,28,30,32,-1,34,36,38,40,-1,-1,-1,-1,-1,-1,42,-1,44,-1,-1,-1,-1,-1,-1,-1,-1,-1,-1,-1,-1,-1,-1,-1],"split_conditions":[2E2,5.68E1,3.086E2,3.095E2,1.69E2,3.78E1,2.25E2,1.58E1,3.11E2,6.15E1,3.087E2,3.5E1,4.96E1,2.19E2,4.36E1,1.12E2,-9.245669E-2,4.44E1,1.38E1,3.113E2,2.1E1,1.703444E-2,1.20929375E-1,2.7953302E-2,1.6931571E-1,-3.199218E-2,9.0235166E-2,2E0,-8.700735E-2,3.45E1,1.1612811E-1,-5.156204E-2,8.272274E-2,-3.979147E-2,3.2127745E-2,2.7898401E-2,-5.9157748E-2,-1.6933114E-3,-8.346617E-2,1.0080425E-1,1.5861964E-2,4.2575493E-2,-2.3695994E-2,7.313626E-2,-6.021265E-2],"split_indices":[5,4,2,2,5,4,5,4,2,4,2,4,4,5,4,5,0,4,4,2,5,0,0,0,0,0,0,0,0,4,0,0,0,0,0,0,0,0,0,0,0,0,0,0,0],"split_type":[0,0,0,0,0,0,0,0,0,0,0,0,0,0,0,0,0,0,0,0,0,0,0,0,0,0,0,0,0,0,0,0,0,0,0,0,0,0,0,0,0,0,0,0,0],"sum_hessian":[1.2894348E2,9.2681366E1,3.6262115E1,6.2693306E1,2.998806E1,6.4571695E0,2.9804945E1,1.3903968E1,4.8789337E1,2.4620575E1,5.367485E0,2.309989E0,4.1471806E0,2.3718447E1,6.0864987E0,3.2789054E0,1.0625063E1,2.589994E1,2.2889399E1,8.677838E0,1.5942736E1,1.2865022E0,4.0809827E0,1.1554885E0,1.1545005E0,1.6981887E0,2.4489918E0,2.0927265E1,2.7911808E0,3.3003345E0,2.7861643E0,2.010982E0,1.2679234E0,7.515417E0,1.8384523E1,1.722257E0,2.1167141E1,6.3355045E0,2.342334E0,2.3004699E0,1.3642266E1,1.5220051E1,5.7072144E0,2.094685E0,1.2056493E0],"tree_param":{"num_deleted":"0","num_feature":"6","num_nodes":"45","size_leaf_vector":"1"}},{"base_weights":[3.8692225E-2,-1.1723099E-1,4.5314103E-1,1.08280465E-1,-4.3182912E-1,-1.8385337E-1,5.178109E-1,3.325991E-1,-1.0434609E-1,-5.987141E-1,1.8926054E-1,2.895007E-2,-4.6913676E-2,2.4027817E-1,7.1970636E-1,-4.3642524E-1,4.5226774E-1,3.6818616E-2,-4.8102197E-1,-2.8266355E-1,-8.324314E-1,-5.934423E-2,3.7531316E-1,3.617601E-1,-6.616728E-2,3.921965E-1,9.178068E-1,-8.962335E-2,4.721592E-2,5.5164058E-2,-5.5711478E-2,-4.027443E-2,3.0394321E-2,-6.3853497E-3,-7.49461E-2,-5.059125E-2,1.2047327E-2,-9.254791E-2,-4.9574148E-2,-4.233796E-3,5.2181553E-2,4.388585E-3,6.613768E-2,-2.5880417E-2,6.7886025E-2,1.1770793E-1,4.2241808E-2],"categories":[],"categories_nodes":[],"categories_segments":[],"categories_sizes":[],"default_left":[0,0,0,0,0,0,0,0,0,0,0,0,0,0,0,0,0,0,0,0,0,0,0,0,0,0,0,0,0,0,0,0,0,0,0,0,0,0,0,0,0,0,0,0,0,0,0],"id":30,"left_children":[1,3,5,7,9,11,13,15,17,19,21,-1,-1,23,25,27,29,31,33,35,37,-1,39,41,-1,43,45,-1,-1,-1,-1,-1,-1,-1,-1,-1,-1,-1,-1,-1,-1,-1,-1,-1,-1,-1,-1],"loss_changes":[8.216409E0,6.6152186E0,1.5262394E0,2.644987E0,4.140888E0,6.678345E-1,1.6088476E0,2.6702018E0,1.5521386E0,2.0448027E0,1.5317957E0,0E0,0E0,1.8711233E0,8.0182266E-1,2.1473963E0,2.6888824E0,2.6961534E0,8.41033E-1,1.3782499E0,8.1023216E-2,0E0,5.0397134E-1,1.2825371E0,0E0,1.76104E0,8.400469E-1,0E0,0E0,0E0,0E0,0E0,0E0,0E0,0E0,0E0,0E0,0E0,0E0,0E0,0E0,0E0,0E0,0E0,0E0,0E0,0E0],"parents":[2147483647,0,0,1,1,2,2,3,3,4,4,5,5,6,6,7,7,8,8,9,9,10,10,13,13,14,14,15,15,16,16,17,17,18,18,19,19,20,20,22,22,23,23,25,25,26,26],"right_children":[2,4,6,8,10,12,14,16,18,20,22,-1,-1,24,26,28,30,32,34,36,38,-1,40,42,-1,44,46,-1,-1,-1,-1,-1,-1,-1,-1,-1,-1,-1,-1,-1,-1,-1,-1,-1,-1,-1,-1],"split_conditions":[2.02E2,1.382E3,1E0,9.4E1,2.113E3,1.42E3,3.101E2,1.288E3,2E0,1.447E3,1E0,2.895007E-2,-4.6913676E-2,3.099E2,1.44E3,7.8E1,3.122E2,1.45E2,1.37E2,1.419E3,1.45E2,-5.934423E-2,2.456E3,2.16E2,-6.616728E-2,2.07E2,1.579E3,-8.962335E-2,4.721592E-2,5.5164058E-2,-5.5711478E-2,-4.027443E-2,3.0394321E-2,-6.3853497E-3,-7.49461E-2,-5.059125E-2,1.2047327E-2,-9.254791E-2,-4.9574148E-2,-4.233796E-3,5.2181553E-2,4.388585E-3,6.613768E-2,-2.5880417E-2,6.7886025E-2,1.1770793E-1,4.2241808E-2],"split_indices":[5,3,0,5,3,3,2,3,0,3,0,0,0,2,3,5,2,5,5,3,5,0,3,5,0,5,3,0,0,0,0,0,0,0,0,0,0,0,0,0,0,0,0,0,0,0,0],"split_type":[0,0,0,0,0,0,0,0,0,0,0,0,0,0,0,0,0,0,0,0,0,0,0,0,0,0,0,0,0,0,0,0,0,0,0,0,0,0,0,0,0,0,0,0,0,0,0],"sum_hessian":[1.2532329E2,9.158462E1,3.373867E1,5.372737E1,3.785725E1,2.9397144E0,3.0798954E1,2.5870277E1,2.7857094E1,2.9867867E1,7.9893823E0,1.0999118E0,1.8398025E0,1.3892262E1,1.6906693E1,3.1271813E0,2.2743095E1,2.0919474E1,6.9376197E0,1.3636698E1,1.6231169E1,1.1138579E0,6.8755245E0,1.2771067E1,1.1211952E0,7.4951363E0,9.411556E0,2.0854096E0,1.0417717E0,2.1117575E1,1.6255195E0,7.715555E0,1.3203918E1,3.2009866E0,3.7366333E0,8.612391E0,5.0243063E0,1.134665E1,4.884519E0,1.970111E0,4.905413E0,6.7530174E0,6.0180497E0,2.3211324E0,5.1740036E0,5.2748017E0,4.1367545E0],"tree_param":{"num_deleted":"0","num_feature":"6","num_nodes":"47","size_leaf_vector":"1"}},{"base_weights":[7.4002706E-3,6.407375E-2,-5.0106686E-1,-3.6114357E-2,8.04567E-1,-7.03593E-1,2.3495698E-1,-1.3367936E-1,2.3987454E-1,5.898835E-2,1.0022931E0,-5.210025E-3,-8.163279E-1,4.8655394E-2,-8.677084E-3,2.5740466E-1,-2.2971195E-1,1.4957008E-1,7.0151323E-1,-4.2589966E-2,4.7812883E-2,4.116005E-2,1.0917401E0,-9.156472E-1,-3.6003415E-3,2.2453216E-3,1.12304166E-1,-3.7408892E-2,4.272614E-3,4.8279308E-2,-1.6754893E-4,1.0694541E-1,3.9658598E-3,1.2283559E-1,2.3693185E-2,-2.7361786E-2,-9.719973E-2],"categories":[],"categories_nodes":[],"categories_segments":[],"categories_sizes":[],"default_left":[0,0,0,0,0,0,0,0,0,0,0,0,0,0,0,0,0,0,0,0,0,0,0,0,0,0,0,0,0,0,0,0,0,0,0,0,0],"id":31,"left_children":[1,3,5,7,9,11,13,15,17,19,21,-1,23,-1,-1,25,27,29,31,-1,-1,-1,33,35,-1,-1,-1,-1,-1,-1,-1,-1,-1,-1,-1,-1,-1],"loss_changes":[3.6175392E0,8.399891E0,2.0421393E0,2.7339642E0,1.9295301E0,7.010479E-1,3.2282233E-1,2.867509E0,1.0025283E0,9.9424505E-1,1.1067486E-1,0E0,6.3064003E-1,0E0,0E0,3.0689373E0,2.3981712E0,1.1846626E0,9.5004344E-1,0E0,0E0,0E0,7.133217E-1,7.3652267E-3,0E0,0E0,0E0,0E0,0E0,0E0,0E0,0E0,0E0,0E0,0E0,0E0,0E0],"parents":[2147483647,0,0,1,1,2,2,3,3,4,4,5,5,6,6,7,7,8,8,9,9,10,10,12,12,15,15,16,16,17,17,18,18,22,22,23,23],"right_children":[2,4,6,8,10,12,14,16,18,20,22,-1,24,-1,-1,26,28,30,32,-1,-1,-1,34,36,-1,-1,-1,-1,-1,-1,-1,-1,-1,-1,-1,-1,-1],"split_conditions":[3.121E2,3.026E2,5.87E1,5.68E1,4.16E1,3.028E2,3.125E2,3.11E1,3.02E2,3.115E2,3.027E2,-5.210025E-3,3.132E2,4.8655394E-2,-8.677084E-3,2.89E1,3.017E2,3.088E2,3.022E2,-4.2589966E-2,4.7812883E-2,4.116005E-2,5.68E1,3.38E1,-3.6003415E-3,2.2453216E-3,1.12304166E-1,-3.7408892E-2,4.272614E-3,4.8279308E-2,-1.6754893E-4,1.0694541E-1,3.9658598E-3,1.2283559E-1,2.3693185E-2,-2.7361786E-2,-9.719973E-2],"split_indices":[2,1,4,4,4,1,2,4,1,2,1,0,2,0,0,4,1,2,1,0,0,0,4,4,0,0,0,0,0,0,0,0,0,0,0,0,0],"split_type":[0,0,0,0,0,0,0,0,0,0,0,0,0,0,0,0,0,0,0,0,0,0,0,0,0,0,0,0,0,0,0,0,0,0,0,0,0],"sum_hessian":[1.2342252E2,1.11831795E2,1.1590726E1,9.934212E1,1.24896755E1,9.124161E0,2.4665651E0,7.3776855E1,2.5565266E1,2.890105E0,9.59957E0,1.5616374E0,7.562524E0,1.0966498E0,1.3699154E0,1.4213455E1,5.95634E1,2.248986E1,3.0754046E0,1.332481E0,1.557624E0,1.9991491E0,7.600421E0,6.5548124E0,1.0077113E0,1.1986117E1,2.2273374E0,3.868787E1,2.0875528E1,6.3367257E0,1.6153135E1,1.5807717E0,1.494633E0,6.176324E0,1.4240973E0,1.0013641E0,5.553448E0],"tree_param":{"num_deleted":"0","num_feature":"6","num_nodes":"37","size_leaf_vector":"1"}},{"base_weights":[5.033956E-2,-9.068097E-2,3.8714686E-1,-1.7960802E-1,6.453714E-1,2.6758707E-1,1.02920294E-1,-4.853073E-1,8.143855E-2,2.532302E-1,9.388562E-2,1.0195572E-1,8.369936E-1,-6.763479E-1,-7.1444707E-3,1.0485687E0,-1.6223142E-1,-7.751247E-2,6.688707E-2,3.9772227E-1,-1.3904704E-1,1.0927969E0,-4.986586E-3,2.6037766E-2,-7.8131035E-2,-2.8890375E-2,8.693285E-2,4.880744E-4,1.1831447E-1,-5.8477756E-2,1.0007445E-2,5.4920685E-2,-5.3111773E-2,9.850749E-2,1.454329E-2,-4.332356E-2,2.7358025E-2,3.6691528E-2,1.2039977E-1],"categories":[],"categories_nodes":[],"categories_segments":[],"categories_sizes":[],"default_left":[0,0,0,0,0,0,0,0,0,0,0,0,0,0,0,0,0,0,0,0,0,0,0,0,0,0,0,0,0,0,0,0,0,0,0,0,0,0,0],"id":32,"left_children":[1,3,5,7,9,11,-1,13,15,17,-1,19,21,23,25,27,29,31,-1,33,35,37,-1,-1,-1,-1,-1,-1,-1,-1,-1,-1,-1,-1,-1,-1,-1,-1,-1],"loss_changes":[5.9209113E0,5.8862953E0,2.5466108E0,6.378774E0,8.8096476E-1,2.9649343E0,0E0,3.3506813E0,1.0469519E1,8.120903E-1,0E0,1.9223704E0,1.6763849E0,2.7829885E0,3.0903974E0,1.2484026E0,4.023695E0,1.4219462E0,0E0,1.6378186E0,1.9604698E0,9.647369E-3,0E0,0E0,0E0,0E0,0E0,0E0,0E0,0E0,0E0,0E0,0E0,0E0,0E0,0E0,0E0,0E0,0E0],"parents":[2147483647,0,0,1,1,2,2,3,3,4,4,5,5,7,7,8,8,9,9,11,11,12,12,13,13,14,14,15,15,16,16,17,17,19,19,20,20,21,21],"right_children":[2,4,6,8,10,12,-1,14,16,18,-1,20,22,24,26,28,30,32,-1,34,36,38,-1,-1,-1,-1,-1,-1,-1,-1,-1,-1,-1,-1,-1,-1,-1,-1,-1],"split_conditions":[2E2,6.4E1,5.41E1,3.014E2,6.73E1,2.25E2,1.02920294E-1,5.76E1,3.105E2,3.109E2,9.388562E-2,4.1E1,2.35E2,1.38E1,1.87E2,4.48E1,3.023E2,2.99E2,6.688707E-2,2.07E2,4.98E1,2.991E2,-4.986586E-3,2.6037766E-2,-7.8131035E-2,-2.8890375E-2,8.693285E-2,4.880744E-4,1.1831447E-1,-5.8477756E-2,1.0007445E-2,5.4920685E-2,-5.3111773E-2,9.850749E-2,1.454329E-2,-4.332356E-2,2.7358025E-2,3.6691528E-2,1.2039977E-1],"split_indices":[5,4,4,1,4,5,0,4,2,2,0,4,5,4,5,4,1,1,0,5,4,1,0,0,0,0,0,0,0,0,0,0,0,0,0,0,0,0,0],"split_type":[0,0,0,0,0,0,0,0,0,0,0,0,0,0,0,0,0,0,0,0,0,0,0,0,0,0,0,0,0,0,0,0,0,0,0,0,0,0,0],"sum_hessian":[1.2292017E2,8.715804E1,3.5762135E1,7.84375E1,8.720536E0,3.1342491E1,4.4196424E0,3.573309E1,4.2704414E1,4.530255E0,4.190282E0,2.5193233E1,6.1492567E0,2.5236048E1,1.0497042E1,7.929371E0,3.4775043E1,2.9757977E0,1.554457E0,1.1019482E1,1.4173753E1,4.592421E0,1.5568353E0,2.393634E0,2.2842413E1,8.45076E0,2.0462818E0,1.0240142E0,6.905357E0,1.2848362E1,2.1926682E1,1.1609807E0,1.8148171E0,2.438316E0,8.581165E0,8.245244E0,5.9285088E0,1.1812421E0,3.411179E0],"tree_param":{"num_deleted":"0","num_feature":"6","num_nodes":"39","size_leaf_vector":"1"}},{"base_weights":[1.474057E-2,-1.555548E-1,3.5242274E-1,-2.4468237E-1,5.423236E-1,2.3031874E-1,1.0099459E-1,6.4255124E-1,-3.22089E-1,1.05356E-1,3.017258E-1,-7.84737E-2,3.177122E-1,7.8202456E-1,6.799027E-3,-7.871477E-1,-1.7290005E-1,-1.9760756E-1,6.414288E-1,4.2202252E-1,-3.9190795E-2,1.0130411E-1,1.8090067E-2,1.4908328E-4,-8.883507E-2,-7.7426615E-3,-8.298135E-2,1.3564895E-2,-3.752408E-2,8.576064E-2,1.5965216E-2,-3.010093E-2,6.064543E-2,8.815595E-2,-4.532756E-2],"categories":[],"categories_nodes":[],"categories_segments":[],"categories_sizes":[],"default_left":[0,0,0,0,0,0,0,0,0,0,0,0,0,0,0,0,0,0,0,0,0,0,0,0,0,0,0,0,0,0,0,0,0,0,0],"id":33,"left_children":[1,3,5,7,9,11,-1,13,15,-1,17,-1,19,21,-1,23,25,27,29,31,33,-1,-1,-1,-1,-1,-1,-1,-1,-1,-1,-1,-1,-1,-1],"loss_changes":[6.98781E0,5.1608467E0,3.0369315E0,5.1773357E0,8.4642196E-1,3.411E0,0E0,4.389727E-1,4.5285034E0,0E0,1.4562526E0,0E0,1.2647207E0,4.897759E-1,0E0,1.2821283E0,3.208579E0,2.840104E-1,3.734188E-1,3.6536045E0,3.6395185E0,0E0,0E0,0E0,0E0,0E0,0E0,0E0,0E0,0E0,0E0,0E0,0E0,0E0,0E0],"parents":[2147483647,0,0,1,1,2,2,3,3,4,4,5,5,7,7,8,8,10,10,12,12,13,13,15,15,16,16,17,17,18,18,19,19,20,20],"right_children":[2,4,6,8,10,12,-1,14,16,-1,18,-1,20,22,-1,24,26,28,30,32,34,-1,-1,-1,-1,-1,-1,-1,-1,-1,-1,-1,-1,-1,-1],"split_conditions":[1.94E2,6.4E1,5.62E1,1.38E1,2.5E1,2E2,1.0099459E-1,3.114E2,4.44E1,1.05356E-1,7.2E1,-7.84737E-2,2E0,1.03E2,6.799027E-3,1.58E1,3.121E2,3.099E2,1.54E2,3.43E1,3.32E1,1.0130411E-1,1.8090067E-2,1.4908328E-4,-8.883507E-2,-7.7426615E-3,-8.298135E-2,1.3564895E-2,-3.752408E-2,8.576064E-2,1.5965216E-2,-3.010093E-2,6.064543E-2,8.815595E-2,-4.532756E-2],"split_indices":[5,4,4,4,5,5,0,2,4,0,5,0,0,5,0,4,2,2,5,4,4,0,0,0,0,0,0,0,0,0,0,0,0,0,0],"split_type":[0,0,0,0,0,0,0,0,0,0,0,0,0,0,0,0,0,0,0,0,0,0,0,0,0,0,0,0,0,0,0,0,0,0,0],"sum_hessian":[1.19561745E2,7.9838165E1,3.9723576E1,7.137243E1,8.465736E0,3.4640934E1,5.082642E0,5.141351E0,6.623108E1,1.6278526E0,6.837884E0,2.113519E0,3.2527416E1,3.8465326E0,1.2948186E0,1.5047652E1,5.1183426E1,2.9378288E0,3.9000552E0,2.5029657E1,7.497757E0,2.28366E0,1.5628728E0,1.8234472E0,1.3224205E1,4.5664566E1,5.51886E0,1.1036439E0,1.8341849E0,2.1536164E0,1.7464386E0,4.958531E0,2.0071127E1,1.9756991E0,5.5220575E0],"tree_param":{"num_deleted":"0","num_feature":"6","num_nodes":"35","size_leaf_vector":"1"}},{"base_weights":[1.52810365E-2,-5.4930914E-2,5.794782E-1,1.1262065E-2,-6.6577584E-1,2.2376455E-1,1.5205002E-1,5.461949E-1,-3.0889839E-2,-7.7815276E-1,-7.858517E-3,-2.2692753E-1,8.3930895E-2,7.261286E-1,1.5322975E-3,1.09083325E-1,-3.129217E-1,-8.664312E-2,-3.0856064E-2,-6.1891925E-2,2.1816668E-1,3.2543384E-2,1.1250128E-1,6.202031E-3,1.2190973E-1,-3.6650866E-2,4.4062413E-2,5.4992016E-2,-3.3800777E-2],"categories":[],"categories_nodes":[],"categories_segments":[],"categories_sizes":[],"default_left":[0,0,0,0,0,0,0,0,0,0,0,0,0,0,0,0,0,0,0,0,0,0,0,0,0,0,0,0,0],"id":34,"left_children":[1,3,5,7,9,11,-1,13,15,17,-1,19,-1,21,-1,23,25,-1,-1,-1,27,-1,-1,-1,-1,-1,-1,-1,-1],"loss_changes":[4.777214E0,4.352013E0,4.126585E0,2.2249587E0,6.3313913E-1,3.202248E0,0E0,6.7723656E-1,3.6549563E0,9.410524E-2,0E0,1.3658693E0,0E0,4.9066687E-1,0E0,3.1653612E0,1.4003878E0,0E0,0E0,0E0,9.318476E-1,0E0,0E0,0E0,0E0,0E0,0E0,0E0,0E0],"parents":[2147483647,0,0,1,1,2,2,3,3,4,4,5,5,7,7,8,8,9,9,11,11,13,13,15,15,16,16,20,20],"right_children":[2,4,6,8,10,12,-1,14,16,18,-1,20,-1,22,-1,24,26,-1,-1,-1,28,-1,-1,-1,-1,-1,-1,-1,-1],"split_conditions":[6.25E1,3.121E2,1.354E3,1.69E1,3.131E2,6.73E1,1.5205002E-1,3.103E2,1.443E3,2E0,-7.858517E-3,3.103E2,8.3930895E-2,3.095E2,1.5322975E-3,1.438E3,4.98E1,-8.664312E-2,-3.0856064E-2,-6.1891925E-2,2E0,3.2543384E-2,1.1250128E-1,6.202031E-3,1.2190973E-1,-3.6650866E-2,4.4062413E-2,5.4992016E-2,-3.3800777E-2],"split_indices":[4,2,3,4,2,4,0,2,3,0,0,2,0,2,0,3,4,0,0,0,0,0,0,0,0,0,0,0,0],"split_type":[0,0,0,0,0,0,0,0,0,0,0,0,0,0,0,0,0,0,0,0,0,0,0,0,0,0,0,0,0],"sum_hessian":[1.1879241E2,1.06448044E2,1.234437E1,9.692638E1,9.521668E0,9.856374E0,2.487997E0,6.2063465E0,9.0720024E1,7.7191577E0,1.8025106E0,6.0546155E0,3.8017576E0,4.3605714E0,1.845775E0,6.1039288E1,2.9680738E1,5.786318E0,1.9328401E0,3.011697E0,3.0429184E0,3.081223E0,1.2793486E0,5.95695E1,1.4697889E0,2.8189703E1,1.4910349E0,1.9130471E0,1.1298715E0],"tree_param":{"num_deleted":"0","num_feature":"6","num_nodes":"29","size_leaf_vector":"1"}},{"base_weights":[3.971861E-2,8.866378E-2,-4.4842586E-1,-1.343132E-3,7.255785E-1,-6.786453E-1,-1.6322343E-1,9.094943E-2,-3.2938907E-1,1.2381061E0,5.614214E-2,-8.620767E-2,-1.6035391E-2,-5.0599247E-2,4.2650428E-2,-5.5961315E-2,6.536496E-1,-3.715788E-2,-8.4745675E-2,3.169332E-2,1.4049807E-1,-4.8134267E-2,2.8217342E-1,-2.3581013E-1,4.0379573E-2,-2.2181062E-2,2.913539E-2,1.041713E-1,-1.8837018E-2,-2.9363338E-2,4.2955384E-2,7.10714E-2,-4.6758135E-3,1.1792853E-2,-5.223277E-2],"categories":[],"categories_nodes":[],"categories_segments":[],"categories_sizes":[],"default_left":[0,0,0,0,0,0,0,0,0,0,0,0,0,0,0,0,0,0,0,0,0,0,0,0,0,0,0,0,0,0,0,0,0,0,0],"id":35,"left_children":[1,3,5,7,9,11,13,15,17,19,21,-1,-1,-1,23,25,27,29,-1,-1,-1,-1,31,33,-1,-1,-1,-1,-1,-1,-1,-1,-1,-1,-1],"loss_changes":[2.8725634E0,6.2263985E0,6.0950994E-1,2.9409366E0,4.544583E0,4.0874672E-1,4.6026602E-1,6.304388E0,3.1973526E0,7.182503E-1,9.715285E-1,0E0,0E0,0E0,5.7854414E-1,3.5808983E0,5.351123E0,1.8835065E0,0E0,0E0,0E0,0E0,8.046943E-1,4.0062356E-1,0E0,0E0,0E0,0E0,0E0,0E0,0E0,0E0,0E0,0E0,0E0],"parents":[2147483647,0,0,1,1,2,2,3,3,4,4,5,5,6,6,7,7,8,8,9,9,10,10,14,14,15,15,16,16,17,17,22,22,23,23],"right_children":[2,4,6,8,10,12,14,16,18,20,22,-1,-1,-1,24,26,28,30,-1,-1,-1,-1,32,34,-1,-1,-1,-1,-1,-1,-1,-1,-1,-1,-1],"split_conditions":[3.121E2,3.026E2,3.126E2,3.11E2,1.378E3,5.48E1,1.358E3,3.018E2,3.022E2,3.027E2,1.421E3,-8.620767E-2,-1.6035391E-2,-5.0599247E-2,4.8E1,5.54E1,1.385E3,5.68E1,-8.4745675E-2,3.169332E-2,1.4049807E-1,-4.8134267E-2,3.028E2,3.51E1,4.0379573E-2,-2.2181062E-2,2.913539E-2,1.041713E-1,-1.8837018E-2,-2.9363338E-2,4.2955384E-2,7.10714E-2,-4.6758135E-3,1.1792853E-2,-5.223277E-2],"split_indices":[2,1,2,2,3,4,3,1,1,1,3,0,0,0,4,4,3,4,0,0,0,0,1,4,0,0,0,0,0,0,0,0,0,0,0],"split_type":[0,0,0,0,0,0,0,0,0,0,0,0,0,0,0,0,0,0,0,0,0,0,0,0,0,0,0,0,0,0,0,0,0,0,0],"sum_hessian":[1.1756549E2,1.0759549E2,9.969997E0,9.514743E1,1.2448064E1,4.7534356E0,5.216562E0,7.482023E1,2.0327198E1,6.569165E0,5.878899E0,3.020964E0,1.7324716E0,1.4104531E0,3.8061087E0,6.0044308E1,1.4775924E1,1.3681482E1,6.645715E0,1.4521744E0,5.116991E0,1.4060001E0,4.472899E0,2.3450274E0,1.461081E0,4.0883198E1,1.916111E1,9.952113E0,4.823811E0,9.068727E0,4.6127567E0,1.4383304E0,3.0345683E0,1.3127253E0,1.0323023E0],"tree_param":{"num_deleted":"0","num_feature":"6","num_nodes":"35","size_leaf_vector":"1"}},{"base_weights":[2.5982842E-2,-1.4087012E-1,4.2624798E-1,6.2820196E-1,-1.8749782E-1,2.3235565E-1,5.8837366E-1,1.7753882E-2,8.005526E-2,-2.919735E-1,2.0316516E-1,4.669173E-1,-5.867537E-1,7.47408E-1,-1.6250311E-1,-2.1406849E-1,-9.074993E-2,5.789028E-1,-1.1314703E-2,2.0347586E-1,1.5043633E-1,-7.4252286E-3,-7.33835E-2,8.827003E-2,8.728351E-1,2.7794102E-2,-4.0201183E-2,-7.043104E-2,-9.802728E-3,